tree
version=v4
num_class=1
num_tree_per_iteration=1
label_index=0
max_feature_idx=10
objective=regression
feature_names=Column_0 Column_1 Column_2 Column_3 Column_4 Column_5 Column_6 Column_7 Column_8 Column_9 Column_10
feature_infos=[-1.7596081530609062:1.8290663696290996] [-1.0789501898346563:1.7306361044947887] [-1.0759672661395323:2.3864777584810315] [-0.70466426341764454:2.936101097573518] [-0.80855778419143864:3.2018888253980968] [-0.32732683535398854:3.0550504633038931] [-0.32732683535398671:3.0550504633038944] [-1.1547987119751828:2.2746895301301824] [-1.7080010671941004:2.0347798435307043] [-1.732467564046154:2.9955776979877426] [-1.0407664207351424:2.1349092907622724]
tree_sizes=632 603 604 627 714 689 609 713 613 698 665 627 589 695 670 748 668 673 650 672 609 609 589 611 592 675 677 677 674 590 671 593 533 680 514 694 682 594 599 627 534 660 536 536 632 535 534 661 752 749 575 677 536 537 749 560 536 535 536 668 538 623 576 525 528 589 565 505 592 578 518 585 582 577 587 579 582 581 501 680 597 600 581 500 579 600 680 501 679 602 598 589 607 426 601 603 502 606 426 504 588 427 607 505 486 590 587 504 589 506 583 427 485 591 507 422 575 502 426 507 596 504 487 502 427 488 587 596 331 591 427 506 498 427 488 588 510 506 506 497 426 427 488 589 394 507 497 488 331 506 423 506 588 423 486 499 507 487 486 422 589 505 498 507 507 591 488 591 506 488 486 589 423 590 498 505 508 507 423 507 423 590 507 590 591 590 591 423 415 495 330 331 423 422 422 423 422 508 508 488

Tree=0
num_leaves=5
num_cat=0
split_feature=7 9 4 7
split_gain=0.157136 0.0426156 0.0260845 0.0105536
threshold=-0.25055558913192255 -0.42983185322596879 2.7005829991994053 -0.50314711877872909
decision_type=2 2 2 2
left_child=2 -2 3 -1
right_child=1 -3 -4 -5
leaf_value=0.14071749539489065 0.14483548460468168 0.15033523532163209 0.14622959723636025 0.14483548460468168
leaf_weight=14.000000000000005 2.9999999999999991 9.9999999999999982 0.999999999999999 3.0000000000000027
leaf_count=14 3 10 1 3
internal_value=0.144835 0.148855 0.141874 0.141277
internal_weight=31 13 18 17
internal_count=31 13 18 17
is_linear=0
shrinkage=1


Tree=1
num_leaves=5
num_cat=0
split_feature=7 10 9 10
split_gain=0.142012 0.0607188 0.039418 0.0102012
threshold=-0.25055558913192255 1.7804146273299442 -0.42983185322596879 -1.0403597346967877
decision_type=2 2 2 2
left_child=1 -1 -2 -4
right_child=2 -3 3 -5
leaf_value=-0.0039994585316847336 0 0.0031772485872109731 0 0.0057329144403338436
leaf_weight=16.000000000000007 2.9999999999999991 1.9999999999999989 0.999999999999999 8.9999999999999982
leaf_count=16 3 2 1 9
internal_value=0 -0.00281363 0.003823 0.00524976
internal_weight=31 18 13 10
internal_count=31 18 13 10
is_linear=0
shrinkage=0.05


Tree=2
num_leaves=5
num_cat=0
split_feature=7 10 9 10
split_gain=0.128 0.0562402 0.0365252 0.00922827
threshold=-0.25055558913192255 1.7804146273299442 -0.42983185322596879 -1.0403597346967877
decision_type=2 2 2 2
left_child=1 -1 -2 -4
right_child=2 -3 3 -5
leaf_value=-0.0038112486701677808 0 0.0030713403224945069 0 0.0054749333932995791
leaf_weight=16.000000000000007 2.9999999999999991 1.9999999999999989 0.999999999999999 8.9999999999999982
leaf_count=16 3 2 1 9
internal_value=0 -0.00266196 0.00363873 0.00501523
internal_weight=31 18 13 10
internal_count=31 18 13 10
is_linear=0
shrinkage=0.05


Tree=3
num_leaves=5
num_cat=0
split_feature=1 9 10 10
split_gain=0.116149 0.0560979 0.021666 0.00951389
threshold=-0.54379089567666672 0.56563985941780104 -1.0403597346967877 1.7804146273299442
decision_type=2 2 2 2
left_child=-1 2 -2 -3
right_child=1 3 -4 -5
leaf_value=-0.0032299014044304681 0 -0.002325451351702213 0.0054265184226361188 0.00075039811432361556
leaf_weight=14.000000000000002 2.0000000000000027 3.9999999999999991 9.9999999999999982 0.99999999999999989
leaf_count=14 2 4 10 1
internal_value=0 0.00272732 0.00455524 -0.00085441
internal_weight=31 17 12 5
internal_count=31 17 12 5
is_linear=0
shrinkage=0.05


Tree=4
num_leaves=6
num_cat=0
split_feature=1 9 10 10 7
split_gain=0.105572 0.0510276 0.019816 0.00892378 0.000473899
threshold=-0.54379089567666672 0.56563985941780104 -1.0403597346967877 1.7804146273299442 -1.0000000180025095e-35
decision_type=2 2 2 2 2
left_child=4 2 -2 -3 -1
right_child=1 3 -4 -5 -6
leaf_value=-0.0033213101384731445 0 -0.0022324332371354105 0.0051798586039380591 0.0007316382974386211 0
leaf_weight=11.999999999999998 2.0000000000000027 3.9999999999999991 9.9999999999999982 0.99999999999999989 2.0000000000000027
leaf_count=12 2 4 10 1 2
internal_value=0 0.00260033 0.00434653 -0.000783148 -0.00307917
internal_weight=31 17 12 5 14
internal_count=31 17 12 5 14
is_linear=0
shrinkage=0.05


Tree=5
num_leaves=6
num_cat=0
split_feature=1 9 8 2 1
split_gain=0.0963399 0.046412 0.014976 0.00499465 0.00015146
threshold=-0.54379089567666672 0.56563985941780104 0.95158718502454265 0.8283808444408941 -0.87826545452541016
decision_type=2 2 2 2 2
left_child=4 2 -2 -3 -1
right_child=1 3 -4 -5 -6
leaf_value=-0.0032988722032556935 0.0056913667684420919 -0.001971833799034357 0.00056400744244456281 0 0
leaf_weight=10.999999999999998 7.0000000000000018 2.9999999999999991 5 1.9999999999999998 3.0000000000000027
leaf_count=11 7 3 5 2 3
internal_value=0 0.00247922 0.00414731 -0.000714831 -0.00294632
internal_weight=31 17 12 5 14
internal_count=31 17 12 5 14
is_linear=0
shrinkage=0.05


Tree=6
num_leaves=5
num_cat=0
split_feature=1 9 10 0
split_gain=0.0885822 0.0428807 0.0170066 0.00803
threshold=-0.54379089567666672 0.56563985941780104 -1.0403597346967877 -0.50357207011940397
decision_type=2 2 2 2
left_child=-1 2 -2 -3
right_child=1 3 -4 -5
leaf_value=-0.0028253616131842132 0 -0.0020839809402823446 0.0047556304271248254 0.0007133474946022033
leaf_weight=14.000000000000002 2.0000000000000027 4 9.9999999999999982 0.999999999999999
leaf_count=14 2 4 10 1
internal_value=0 0.00237715 0.00398323 -0.000665535
internal_weight=31 17 12 5
internal_count=31 17 12 5
is_linear=0
shrinkage=0.05


Tree=7
num_leaves=6
num_cat=0
split_feature=1 9 10 10 1
split_gain=0.0805077 0.0389928 0.015569 0.00752216 0.000195096
threshold=-0.54379089567666672 0.56563985941780104 -1.0403597346967877 1.7804146273299442 -0.87826545452541016
decision_type=2 2 2 2 2
left_child=4 2 -2 -3 -1
right_child=1 3 -4 -5 -6
leaf_value=-0.0030181780830025678 0 -0.0020006217211484909 0.0045394654411145237 0.00069551378488540605 0
leaf_weight=10.999999999999998 2.0000000000000027 3.9999999999999991 9.9999999999999982 0.99999999999999989 3.0000000000000027
leaf_count=11 2 4 10 1 3
internal_value=0 0.00226623 0.00380032 -0.000602014 -0.00269351
internal_weight=31 17 12 5 14
internal_count=31 17 12 5 14
is_linear=0
shrinkage=0.05


Tree=8
num_leaves=5
num_cat=0
split_feature=1 9 8 0
split_gain=0.0736322 0.0354558 0.013016 0.00704252
threshold=-0.54379089567666672 0.56563985941780104 0.95158718502454265 -0.50357207011940397
decision_type=2 2 2 2
left_child=-1 2 -2 -3
right_child=1 3 -4 -5
leaf_value=-0.0025828447925547757 0.005035709110088645 -0.0019205968603491779 0.00030812970828264941 0.00067812599241733539
leaf_weight=14.000000000000002 7.0000000000000018 4 5 0.999999999999999
leaf_count=14 7 4 5 1
internal_value=0 0.00216043 0.00362573 -0.000541122
internal_weight=31 17 12 5
internal_count=31 17 12 5
is_linear=0
shrinkage=0.05


Tree=9
num_leaves=6
num_cat=0
split_feature=1 9 8 0 1
split_gain=0.0674588 0.0326055 0.0112839 0.00658939 0.000225411
threshold=-0.54379089567666672 0.56563985941780104 0.95158718502454265 -0.50357207011940397 -0.87826545452541016
decision_type=2 2 2 2 2
left_child=4 2 -2 -3 -1
right_child=1 3 -4 -5 -6
leaf_value=-0.0027614646187673012 0.0048153967340476798 -0.0018437729924917217 0.00029529099585488431 0.00066117256879806509 0
leaf_weight=10.999999999999998 7.0000000000000018 4 5 0.999999999999999 3.0000000000000027
leaf_count=11 7 4 5 1 3
internal_value=0 0.00207769 0.00348422 -0.000482753 -0.00246231
internal_weight=31 17 12 5 14
internal_count=31 17 12 5 14
is_linear=0
shrinkage=0.05


Tree=10
num_leaves=6
num_cat=0
split_feature=7 10 10 0 9
split_gain=0.0614722 0.0323148 0.0197695 0.00671663 0.000560981
threshold=-0.25055558913192255 1.7804146273299442 -0.62603703628875396 1.2907651912255991 -0.42983185322596879
decision_type=2 2 2 2 2
left_child=1 -1 4 -4 -2
right_child=2 -3 3 -5 -6
leaf_value=-0.0027527204648975056 0 0.0023077265918254853 0.0050972073152661338 0 0.00052961370535194857
leaf_weight=16.000000000000007 3 1.9999999999999989 4.9999999999999982 0.99999999999999989 4
leaf_count=16 3 2 5 1 4
internal_value=0 -0.00183542 0.00253086 0.0044577 0
internal_weight=31 18 13 6 7
internal_count=31 18 13 6 7
is_linear=0
shrinkage=0.05


Tree=11
num_leaves=5
num_cat=0
split_feature=1 1 10 8
split_gain=0.0574899 0.0200442 0.00953135 0.00358392
threshold=-0.54379089567666672 1.3961615456460457 -1.0403597346967877 0.44562306339978675
decision_type=2 2 2 2
left_child=-1 2 -2 -3
right_child=1 3 -4 -5
leaf_value=-0.002250949503233035 0 -0.0015003265999257564 0.0034347257153907172 0.00015789423137903193
leaf_weight=14.000000000000002 2.0000000000000027 2.9999999999999991 10.999999999999998 0.99999999999999989
leaf_count=14 2 3 11 1
internal_value=0 0.00193969 0.0029 -0.000137104
internal_weight=31 17 13 4
internal_count=31 17 13 4
is_linear=0
shrinkage=0.05


Tree=12
num_leaves=5
num_cat=0
split_feature=7 10 9 8
split_gain=0.0522614 0.0279216 0.0175793 0.00774939
threshold=-0.25055558913192255 1.7804146273299442 -0.36356903745911612 1.6965903670365259
decision_type=2 2 2 2
left_child=1 -1 -2 -4
right_child=2 -3 3 -5
leaf_value=-0.0025405994057655329 0 0.0021163116147120795 0.0048410389696558328 0
leaf_weight=16.000000000000007 6 1.9999999999999989 4.9999999999999982 1.9999999999999998
leaf_count=16 6 2 5 2
internal_value=0 -0.00167586 0.00234965 0.00389295
internal_weight=31 18 13 7
internal_count=31 18 13 7
is_linear=0
shrinkage=0.05


Tree=13
num_leaves=6
num_cat=0
split_feature=1 1 10 7 0
split_gain=0.0483 0.0173012 0.00831407 0.00290297 0.000151931
threshold=-0.54379089567666672 1.3961615456460457 -1.0403597346967877 0.95971481603345643 -0.8624395223884046
decision_type=2 2 2 2 2
left_child=4 2 -2 -3 -1
right_child=1 3 -4 -5 -6
leaf_value=0 0 -0.0013487918488681316 0.0031895666678125665 3.2920986413955532e-05 -0.0021224331330241901
leaf_weight=1.0000000000000007 2.0000000000000027 2.9999999999999991 10.999999999999998 0.99999999999999989 13
leaf_count=1 2 3 11 1 13
internal_value=0 0.00179604 0.00268986 -6.58651e-05 -0.00204428
internal_weight=31 17 13 4 14
internal_count=31 17 13 4 14
is_linear=0
shrinkage=0.05


Tree=14
num_leaves=6
num_cat=0
split_feature=2 7 9 1 8
split_gain=0.0458816 0.0288258 0.00675924 0.00247776 0.000108596
threshold=0.8283808444408941 1.0000000180025095e-35 -0.20226144581789365 1.1285818985670508 1.0000000180025095e-35
decision_type=2 2 2 2 2
left_child=1 -1 -3 -2 -5
right_child=3 2 -4 4 -6
leaf_value=-0.0023403178597800425 0.0044452187567949296 0 0.0021646152213215834 0 0.00036843515932559939
leaf_weight=15.000000000000005 3.9999999999999991 6 3.9999999999999982 0.99999999999999967 1
leaf_count=15 4 6 4 1 1
internal_value=0 -0.000921924 0.00077046 0.00363722 0
internal_weight=31 25 10 6 2
internal_count=31 25 10 6 2
is_linear=0
shrinkage=0.05


Tree=15
num_leaves=7
num_cat=0
split_feature=2 7 1 7 1 8
split_gain=0.0423398 0.0263956 0.00283681 0.00234486 0.00197286 0.000103234
threshold=0.8283808444408941 0.95971481603345643 0.59342260440906103 -1.0000000180025095e-35 1.1285818985670508 1.0000000180025095e-35
decision_type=2 2 2 2 2 2
left_child=1 3 -3 -1 -2 -6
right_child=4 2 -4 -5 5 -7
leaf_value=-0.0022306154877878718 0.004267410054802895 0 0.0021829196438193318 0 0 0.00035922419279813737
leaf_weight=15.000000000000005 3.9999999999999991 3.9999999999999991 3 3.0000000000000027 0.99999999999999967 1
leaf_count=15 4 4 3 3 1 1
internal_value=0 -0.000871066 0.00122314 -0.00197015 0.00350758 0
internal_weight=31 25 7 18 6 2
internal_count=31 25 7 18 6 2
is_linear=0
shrinkage=0.05


Tree=16
num_leaves=6
num_cat=0
split_feature=7 10 10 0 1
split_gain=0.0377142 0.0207698 0.0140224 0.00523859 7.69642e-05
threshold=-0.25055558913192255 1.7804146273299442 -0.62603703628875396 1.2907651912255991 1.0000000180025095e-35
decision_type=2 2 2 2 2
left_child=1 -1 4 -4 -2
right_child=2 -3 3 -5 -6
leaf_value=-0.0021481959576554149 0 0.0017821107308069865 0.0042107813184460016 0 0.00019616851516184388
leaf_weight=16.000000000000007 3 1.9999999999999989 4.9999999999999982 0.99999999999999989 4
leaf_count=16 3 2 5 1 4
internal_value=0 -0.00137753 0.00203946 0.00365059 0
internal_weight=31 18 13 6 7
internal_count=31 18 13 6 7
is_linear=0
shrinkage=0.05


Tree=17
num_leaves=6
num_cat=0
split_feature=2 7 0 0 7
split_gain=0.0364212 0.0223505 0.0127495 0.00335905 0.00170311
threshold=0.8283808444408941 0.95971481603345643 -0.50357207011940397 -0.50357207011940397 -1.0000000180025095e-35
decision_type=2 2 2 2 2
left_child=1 4 -2 -3 -1
right_child=2 3 -4 -5 -6
leaf_value=-0.0020253587386105201 0 0.0019244041070342059 0.0042290379106998451 0 0
leaf_weight=15.000000000000005 0.99999999999999989 4 4.9999999999999991 2.9999999999999991 3.0000000000000027
leaf_count=15 1 4 5 3 3
internal_value=0 -0.000775052 0.00328274 0.00112467 -0.0017973
internal_weight=31 25 6 7 18
internal_count=31 25 6 7 18
is_linear=0
shrinkage=0.05


Tree=18
num_leaves=6
num_cat=0
split_feature=7 9 8 4 7
split_gain=0.0316379 0.0129562 0.00581955 0.00561297 0.00302773
threshold=-0.25055558913192255 -0.36356903745911612 1.6965903670365259 2.7005829991994053 -0.50314711877872909
decision_type=2 2 2 2 2
left_child=3 -2 -3 4 -1
right_child=1 2 -4 -5 -6
leaf_value=-0.0018395292125642294 0 0.0040182486921548858 0 0 0
leaf_weight=14.000000000000005 6 4.9999999999999982 1.9999999999999998 0.999999999999999 3.0000000000000027
leaf_count=14 6 5 2 1 3
internal_value=0 0.00188866 0.00320798 -0.00123877 -0.00154899
internal_weight=31 13 7 18 17
internal_count=31 13 7 18 17
is_linear=0
shrinkage=0.05


Tree=19
num_leaves=6
num_cat=0
split_feature=2 7 9 7 1
split_gain=0.0316341 0.0187179 0.00275644 0.00122213 0.000961332
threshold=0.8283808444408941 0.95971481603345643 -0.20226144581789365 -1.0000000180025095e-35 1.1285818985670508
decision_type=2 2 2 2 2
left_child=1 3 -3 -1 -2
right_child=4 2 -4 -5 -6
leaf_value=-0.0018499406392220403 0.0037030425816774373 0 0.0017268804050981999 0 0
leaf_weight=15.000000000000005 3.9999999999999991 3 3.9999999999999991 3.0000000000000027 1.9999999999999998
leaf_count=15 4 3 4 3 2
internal_value=0 -0.000705088 0.00100122 -0.00164958 0.0030743
internal_weight=31 25 7 18 6
internal_count=31 25 7 18 6
is_linear=0
shrinkage=0.05


Tree=20
num_leaves=5
num_cat=0
split_feature=2 0 8 9
split_gain=0.0292728 0.0111304 0.0105573 0.00519267
threshold=0.8283808444408941 -0.50357207011940397 0.44562306339978675 -0.20226144581789365
decision_type=2 2 2 2
left_child=2 -2 -1 -4
right_child=1 -3 3 -5
leaf_value=-0.0014771808982443279 0 0.00386242234458526 -7.7859344176734585e-05 0.0016578051783144477
leaf_weight=16.000000000000007 0.99999999999999989 4.9999999999999991 5 3.9999999999999982
leaf_count=16 1 5 5 4
internal_value=0 0.0029685 -0.000665008 0.000282187
internal_weight=31 6 25 9
internal_count=31 6 25 9
is_linear=0
shrinkage=0.05


Tree=21
num_leaves=5
num_cat=0
split_feature=2 0 8 9
split_gain=0.026582 0.0104487 0.0095781 0.0048271
threshold=0.8283808444408941 -0.50357207011940397 0.44562306339978675 -0.20226144581789365
decision_type=2 2 2 2
left_child=2 -2 -1 -4
right_child=1 -3 3 -5
leaf_value=-0.0014076665101353733 0 0.0037014880962669854 -7.4615222959740341e-05 0.0015914929248392587
leaf_weight=16.000000000000007 0.99999999999999989 4.9999999999999991 5 3.9999999999999982
leaf_count=16 1 5 5 4
internal_value=0 0.00283056 -0.00063156 0.000250977
internal_weight=31 6 25 9
internal_count=31 6 25 9
is_linear=0
shrinkage=0.05


Tree=22
num_leaves=5
num_cat=0
split_feature=7 10 9 8
split_gain=0.0234404 0.0129143 0.0102068 0.00463887
threshold=-0.25055558913192255 1.7804146273299442 -0.36356903745911612 1.6965903670365259
decision_type=2 2 2 2
left_child=1 -1 -2 -4
right_child=2 -3 3 -5
leaf_value=-0.0016811536846901558 0 0.0012678914020458857 0.0035386346404751149 0
leaf_weight=16.000000000000007 6 1.9999999999999989 4.9999999999999982 1.9999999999999998
leaf_count=16 6 2 5 2
internal_value=0 -0.00104084 0.00164789 0.00281812
internal_weight=31 18 13 7
internal_count=31 18 13 7
is_linear=0
shrinkage=0.05


Tree=23
num_leaves=5
num_cat=0
split_feature=2 8 9 1
split_gain=0.0229391 0.00773107 0.00392587 0.000543939
threshold=0.8283808444408941 0.44562306339978675 -0.20226144581789365 1.1285818985670508
decision_type=2 2 2 2
left_child=1 -1 -3 -2
right_child=3 2 -4 -5
leaf_value=-0.0012721994004267099 0.0031689128428697591 -5.7496606120063563e-05 0.0014216741882264617 0
leaf_weight=16.000000000000007 3.9999999999999991 5 3.9999999999999982 1.9999999999999998
leaf_count=16 4 5 4 2
internal_value=0 -0.000571692 0.000176339 0.0026417
internal_weight=31 25 9 6
internal_count=31 25 9 6
is_linear=0
shrinkage=0.05


Tree=24
num_leaves=5
num_cat=0
split_feature=7 10 9 7
split_gain=0.0199743 0.0112893 0.00889345 0.00028857
threshold=-0.25055558913192255 1.7804146273299442 -0.36356903745911612 2.1066534752354991
decision_type=2 2 2 2
left_child=1 -1 -2 -4
right_child=2 -3 3 -5
leaf_value=-0.0015494867920642713 0 0.0011728131771087647 0.0028327716841262639 0
leaf_weight=16.000000000000007 6 1.9999999999999989 5.9999999999999982 0.99999999999999989
leaf_count=16 6 2 6 1
internal_value=0 -0.000938044 0.00154034 0.00263274
internal_weight=31 18 13 7
internal_count=31 18 13 7
is_linear=0
shrinkage=0.05


Tree=25
num_leaves=6
num_cat=0
split_feature=2 7 0 9 7
split_gain=0.0203826 0.0111057 0.00848288 0.00167168 0.000759917
threshold=0.8283808444408941 0.95971481603345643 -0.50357207011940397 -0.20226144581789365 -1.0000000180025095e-35
decision_type=2 2 2 2 2
left_child=1 4 -2 -3 -1
right_child=2 3 -4 -5 -6
leaf_value=-0.00142926142008946 0 0 0.0032947604979077978 0.0012798241302371025 0
leaf_weight=15.000000000000005 0.99999999999999989 3 4.9999999999999991 3.9999999999999991 3.0000000000000027
leaf_count=15 1 3 5 4 3
internal_value=0 -0.000520025 0.00250501 0.000708038 -0.00127289
internal_weight=31 25 6 7 18
internal_count=31 25 6 7 18
is_linear=0
shrinkage=0.05


Tree=26
num_leaves=6
num_cat=0
split_feature=2 7 0 0 7
split_gain=0.0184415 0.0102258 0.00796893 0.00155656 0.000630357
threshold=0.8283808444408941 0.95971481603345643 -0.50357207011940397 -0.50357207011940397 -1.0000000180025095e-35
decision_type=2 2 2 2 2
left_child=1 4 -2 -3 -1
right_child=2 3 -4 -5 -6
leaf_value=-0.0013622648252930953 0 0.0012286311350762844 0.0031574787385761742 0 0
leaf_weight=15.000000000000005 0.99999999999999989 4 4.9999999999999991 2.9999999999999991 3.0000000000000027
leaf_count=15 1 4 5 3 3
internal_value=0 -0.000488641 0.00238734 0.000676043 -0.00121647
internal_weight=31 25 6 7 18
internal_count=31 25 6 7 18
is_linear=0
shrinkage=0.05


Tree=27
num_leaves=6
num_cat=0
split_feature=2 7 0 9 7
split_gain=0.0166754 0.00941772 0.00748853 0.00144974 0.000515314
threshold=0.8283808444408941 0.95971481603345643 -0.50357207011940397 -0.20226144581789365 -1.0000000180025095e-35
decision_type=2 2 2 2 2
left_child=1 4 -2 -3 -1
right_child=2 3 -4 -5 -6
leaf_value=-0.0012984086878714148 0 0 0.0030259172245860103 0.0011794859133660792 0
leaf_weight=15.000000000000005 0.99999999999999989 3 4.9999999999999991 3.9999999999999991 3.0000000000000027
leaf_count=15 1 3 5 4 3
internal_value=0 -0.000458796 0.00227457 0.000645327 -0.0011627
internal_weight=31 25 6 7 18
internal_count=31 25 6 7 18
is_linear=0
shrinkage=0.05


Tree=28
num_leaves=6
num_cat=0
split_feature=2 7 9 7 1
split_gain=0.0150691 0.00867535 0.00135061 0.000413334 0.000321922
threshold=0.8283808444408941 0.95971481603345643 -0.20226144581789365 -1.0000000180025095e-35 1.1285818985670508
decision_type=2 2 2 2 2
left_child=1 3 -3 -1 -2
right_child=4 2 -4 -5 -6
leaf_value=-0.0012375457564485256 0.0025946464538574225 0 0.0011323064528405665 0 0
leaf_weight=15.000000000000005 3.9999999999999991 3 3.9999999999999991 3.0000000000000027 1.9999999999999998
leaf_count=15 4 3 4 3 2
internal_value=0 -0.000430414 0.00061584 -0.00111145 0.0021665
internal_weight=31 25 7 18 6
internal_count=31 25 7 18 6
is_linear=0
shrinkage=0.05


Tree=29
num_leaves=5
num_cat=0
split_feature=7 10 9 8
split_gain=0.0131946 0.00720237 0.007078 0.00339987
threshold=-0.25055558913192255 1.7804146273299442 -0.36356903745911612 1.6965903670365259
decision_type=2 2 2 2
left_child=1 -1 -2 -4
right_child=2 -3 3 -5
leaf_value=-0.0012415338296662354 0 0.00077453674127658204 0.0028630827056864904 0
leaf_weight=16.000000000000007 6 1.9999999999999989 4.9999999999999982 1.9999999999999998
leaf_count=16 6 2 5 2
internal_value=0 -0.000725393 0.00128143 0.0022551
internal_weight=31 18 13 7
internal_count=31 18 13 7
is_linear=0
shrinkage=0.05


Tree=30
num_leaves=6
num_cat=0
split_feature=2 7 1 7 1
split_gain=0.0132932 0.00718535 0.000699289 0.000239415 1.08834e-05
threshold=0.8283808444408941 0.95971481603345643 0.59342260440906103 -1.0000000180025095e-35 1.1285818985670508
decision_type=2 2 2 2 2
left_child=1 3 -3 -1 -2
right_child=4 2 -4 -5 -6
leaf_value=-0.00112133889371762 0.0024258535876870158 0 0.00100351694971323 0 0
leaf_weight=15.000000000000005 3.9999999999999991 3.9999999999999991 3 3.0000000000000027 1.9999999999999998
leaf_count=15 4 4 3 3 2
internal_value=0 -0.00038413 0.000533849 -0.00101359 0.00204927
internal_weight=31 25 7 18 6
internal_count=31 25 7 18 6
is_linear=0
shrinkage=0.05


Tree=31
num_leaves=5
num_cat=0
split_feature=7 9 10 8
split_gain=0.0110839 0.00635684 0.00623463 0.00288102
threshold=-0.25055558913192255 -0.36356903745911612 1.7804146273299442 1.6965903670365259
decision_type=2 2 2 2
left_child=2 -2 -1 -3
right_child=1 3 -4 -5
leaf_value=-0.0011336378879187735 0 0.0026782688498497016 0.00070828791707754123 0
leaf_weight=16.000000000000007 6 4.9999999999999982 1.9999999999999989 1.9999999999999998
leaf_count=16 6 5 2 2
internal_value=0 0.00119356 -0.000639315 0.00211649
internal_weight=31 13 18 7
internal_count=31 13 18 7
is_linear=0
shrinkage=0.05


Tree=32
num_leaves=4
num_cat=0
split_feature=10 7 9
split_gain=0.0105029 0.00953276 0.00267067
threshold=1.7804146273299442 -0.25055558913192255 -0.42983185322596879
decision_type=2 2 2
left_child=1 -1 -3
right_child=-2 2 -4
leaf_value=-0.0010802902160760232 0.0025139146205037832 0 0.0010792307723313571
leaf_weight=16.000000000000007 2.9999999999999991 2.9999999999999991 8.9999999999999982
leaf_count=16 3 3 9
internal_value=0 -0.000183666 0.000618355
internal_weight=31 28 12
internal_count=31 28 12
is_linear=0
shrinkage=0.05


Tree=33
num_leaves=6
num_cat=0
split_feature=2 0 7 0 7
split_gain=0.0109661 0.00554144 0.00543602 0.00086029 1.03553e-05
threshold=0.8283808444408941 -0.50357207011940397 0.95971481603345643 -0.50357207011940397 -1.0000000180025095e-35
decision_type=2 2 2 2 2
left_child=2 -2 4 -4 -1
right_child=1 -3 3 -5 -6
leaf_value=-0.00096499825187493097 0 0.0025345825714369621 0.00084749891981482492 0 0
leaf_weight=15.000000000000005 0.99999999999999989 4.9999999999999991 4 2.9999999999999991 3.0000000000000027
leaf_count=15 1 5 4 3 3
internal_value=0 0.00187811 -0.00032369 0.000424345 -0.000884773
internal_weight=31 6 25 7 18
internal_count=31 6 25 7 18
is_linear=0
shrinkage=0.05


Tree=34
num_leaves=4
num_cat=0
split_feature=2 7 9
split_gain=0.00989819 0.00501746 0.000803772
threshold=0.8283808444408941 0.95971481603345643 -0.20226144581789365
decision_type=2 2 2
left_child=1 -1 -3
right_child=-2 2 -4
leaf_value=-0.00084668143284752156 0.0017875886096486025 0 0.000813598982989788
leaf_weight=18.000000000000007 5.9999999999999991 3 3.9999999999999991
leaf_count=18 6 3 4
internal_value=0 -0.000302373 0.000403157
internal_weight=31 25 7
internal_count=31 25 7
is_linear=0
shrinkage=0.05


Tree=35
num_leaves=6
num_cat=0
split_feature=2 0 1 0 9
split_gain=0.00900827 0.00510787 0.00204429 0.000655713 0.000580906
threshold=0.8283808444408941 -0.50357207011940397 -0.54379089567666672 -0.50357207011940397 0.56563985941780104
decision_type=2 2 2 2 2
left_child=2 -2 3 -1 -4
right_child=1 -3 4 -5 -6
leaf_value=0 0 0.0023544921198238936 0.00039424412392286793 -0.00085530466691125157 -0.00011555191129446021
leaf_weight=3.0000000000000027 0.99999999999999989 4.9999999999999991 7.9999999999999982 11.000000000000002 3
leaf_count=3 1 5 8 11 3
internal_value=0 0.00171098 -0.000279323 -0.000689892 0
internal_weight=31 6 25 14 11
internal_count=31 6 25 14 11
is_linear=0
shrinkage=0.05


Tree=36
num_leaves=6
num_cat=0
split_feature=2 0 7 0 7
split_gain=0.00815029 0.00480814 0.0043352 0.000743672 3.09791e-05
threshold=0.8283808444408941 -0.50357207011940397 0.95971481603345643 -0.50357207011940397 -1.0000000180025095e-35
decision_type=2 2 2 2 2
left_child=2 -2 4 -4 -1
right_child=1 -3 3 -5 -6
leaf_value=-0.00085493702528765397 0 0.0022563883227606617 0.00076528524607419953 0 0
leaf_weight=15.000000000000005 0.99999999999999989 4.9999999999999991 4 2.9999999999999991 3.0000000000000027
leaf_count=15 1 5 4 3 3
internal_value=0 0.00162689 -0.000266629 0.000365569 -0.000781942
internal_weight=31 6 25 7 18
internal_count=31 6 25 7 18
is_linear=0
shrinkage=0.05


Tree=37
num_leaves=5
num_cat=0
split_feature=2 0 7 9
split_gain=0.00733384 0.0045271 0.00399961 0.000695432
threshold=0.8283808444408941 -0.50357207011940397 0.95971481603345643 -0.20226144581789365
decision_type=2 2 2 2
left_child=2 -2 -1 -4
right_child=1 -3 3 -5
leaf_value=-0.00074819436529651264 0 0.0021623721004774177 0 0.00073467380926012986
leaf_weight=18.000000000000007 0.99999999999999989 4.9999999999999991 3 3.9999999999999991
leaf_count=18 1 5 3 4
internal_value=0 0.0015463 -0.000247854 0.000346437
internal_weight=31 6 25 7
internal_count=31 6 25 7
is_linear=0
shrinkage=0.05


Tree=38
num_leaves=5
num_cat=0
split_feature=7 10 10 0
split_gain=0.00673378 0.00427748 0.00341777 0.000714438
threshold=-0.25055558913192255 -0.62603703628875396 1.7804146273299442 1.2907651912255991
decision_type=2 2 2 2
left_child=2 -2 -1 -3
right_child=1 3 -4 -5
leaf_value=-0.00086039721595999928 0 0.0020458781595031421 0.00023103371262550348 0
leaf_weight=16.000000000000007 7 4.9999999999999982 1.9999999999999989 0.99999999999999989
leaf_count=16 7 5 2 1
internal_value=0 0.000949959 -0.000470192 0.00182552
internal_weight=31 13 18 6
internal_count=31 13 18 6
is_linear=0
shrinkage=0.05


Tree=39
num_leaves=5
num_cat=0
split_feature=10 1 9 0
split_gain=0.00638 0.00172137 0.00152189 0.000104963
threshold=1.7804146273299442 -0.87826545452541016 0.56563985941780104 -0.50357207011940397
decision_type=2 2 2 2
left_child=1 3 -3 -1
right_child=-2 2 -4 -5
leaf_value=0 0.0019722150359302759 0.00045135680777353359 -0.0004364869892597198 -0.00070408001821488093
leaf_weight=1.9999999999999989 2.9999999999999991 13.000000000000002 3.9999999999999991 9.0000000000000053
leaf_count=2 3 13 4 9
internal_value=0 -0.000116184 0 -0.000625492
internal_weight=31 28 17 11
internal_count=31 28 17 11
is_linear=0
shrinkage=0.05


Tree=40
num_leaves=4
num_cat=0
split_feature=10 7 9
split_gain=0.00591187 0.00504173 0.0016291
threshold=1.7804146273299442 -0.25055558913192255 -0.42983185322596879
decision_type=2 2 2
left_child=1 -1 -3
right_child=-2 2 -4
leaf_value=-0.00079746288548716696 0.0018982569873332977 0 0.00078943727351725099
leaf_weight=16.000000000000007 2.9999999999999991 2.9999999999999991 8.9999999999999982
leaf_count=16 3 3 9
internal_value=0 -0.000112365 0.00040756
internal_weight=31 28 12
internal_count=31 28 12
is_linear=0
shrinkage=0.05


Tree=41
num_leaves=6
num_cat=0
split_feature=7 9 8 4 8
split_gain=0.00532016 0.00435429 0.00207805 0.000758142 0.000365438
threshold=-0.25055558913192255 -0.36356903745911612 1.6965903670365259 2.7005829991994053 -1.0000000180025095e-35
decision_type=2 2 2 2 2
left_child=3 -2 -3 4 -1
right_child=1 2 -4 -5 -6
leaf_value=-0.00062598066125065053 0 0.0020941346697509293 0 0 0
leaf_weight=14.000000000000005 6 4.9999999999999982 1.9999999999999998 0.999999999999999 3.0000000000000027
leaf_count=14 6 5 2 1 3
internal_value=0 0.000854884 0.0016247 -0.000401892 -0.000525155
internal_weight=31 13 7 18 17
internal_count=31 13 7 18 17
is_linear=0
shrinkage=0.05


Tree=42
num_leaves=4
num_cat=0
split_feature=10 7 9
split_gain=0.00530972 0.00417437 0.00139815
threshold=1.7804146273299442 -0.25055558913192255 -0.42983185322596879
decision_type=2 2 2
left_child=1 -1 -3
right_child=-2 2 -4
leaf_value=-0.00073415953761843172 0.0018008956406265497 0 0.00071202988550066952
leaf_weight=16.000000000000007 2.9999999999999991 2.9999999999999991 8.9999999999999982
leaf_count=16 3 3 9
internal_value=0 -0.000101948 0.000348016
internal_weight=31 28 12
internal_count=31 28 12
is_linear=0
shrinkage=0.05


Tree=43
num_leaves=4
num_cat=0
split_feature=10 7 9
split_gain=0.00490705 0.00377227 0.00130579
threshold=1.7804146273299442 -0.25055558913192255 -0.42983185322596879
decision_type=2 2 2
left_child=1 -1 -3
right_child=-2 2 -4
leaf_value=-0.00069961088997147513 0.0017333620879799129 0 0.00067998852860182526
leaf_weight=16.000000000000007 2.9999999999999991 2.9999999999999991 8.9999999999999982
leaf_count=16 3 3 9
internal_value=0 -9.27446e-05 0.000323369
internal_weight=31 28 12
internal_count=31 28 12
is_linear=0
shrinkage=0.05


Tree=44
num_leaves=5
num_cat=0
split_feature=10 1 9 0
split_gain=0.00453533 0.00100799 0.00129823 0.000582785
threshold=1.7804146273299442 -0.54379089567666672 0.56563985941780104 -0.50357207011940397
decision_type=2 2 2 2
left_child=1 3 -3 -1
right_child=-2 2 -4 -5
leaf_value=0 0.0016683609876781702 0.00050108759833330456 -0.00031099870428442949 -0.00059030695340576717
leaf_weight=3.0000000000000027 2.9999999999999991 9.9999999999999982 3.9999999999999991 11.000000000000002
leaf_count=3 3 10 4 11
internal_value=0 -8.39965e-05 0 -0.000426191
internal_weight=31 28 14 14
internal_count=31 28 14 14
is_linear=0
shrinkage=0.05


Tree=45
num_leaves=4
num_cat=0
split_feature=10 7 9
split_gain=0.00419868 0.00319982 0.00114905
threshold=1.7804146273299442 -0.25055558913192255 -0.42983185322596879
decision_type=2 2 2
left_child=1 -1 -3
right_child=-2 2 -4
leaf_value=-0.00064740343635682649 0.001605797647498548 0 0.00062684010877273977
leaf_weight=16.000000000000007 2.9999999999999991 2.9999999999999991 8.9999999999999982
leaf_count=16 3 3 9
internal_value=0 -7.92957e-05 0.000285099
internal_weight=31 28 12
internal_count=31 28 12
is_linear=0
shrinkage=0.05


Tree=46
num_leaves=4
num_cat=0
split_feature=10 7 9
split_gain=0.00388085 0.00289019 0.00107267
threshold=1.7804146273299442 -0.25055558913192255 -0.42983185322596879
decision_type=2 2 2
left_child=1 -1 -3
right_child=-2 2 -4
leaf_value=-0.00061693739649319225 0.0015455800527706743 0 0.00059863229212351145
leaf_weight=16.000000000000007 2.9999999999999991 2.9999999999999991 8.9999999999999982
leaf_count=16 3 3 9
internal_value=0 -7.11631e-05 0.0002634
internal_weight=31 28 12
internal_count=31 28 12
is_linear=0
shrinkage=0.05


Tree=47
num_leaves=6
num_cat=0
split_feature=2 7 9 10 2
split_gain=0.00364686 0.00168359 0.000336793 9.89358e-05 9.31039e-05
threshold=0.8283808444408941 0.95971481603345643 -0.20226144581789365 1.7804146273299442 -0.57583594624554879
decision_type=2 2 2 2 2
left_child=1 4 -3 -2 -1
right_child=3 2 -4 -5 -6
leaf_value=-0.00069884027633815955 0 0 0.00042717040143907072 0.0014876208454370496 0
leaf_weight=9.0000000000000053 2.9999999999999991 3 3.9999999999999991 3 9.0000000000000018
leaf_count=9 3 3 4 3 9
internal_value=0 -0.000140388 9.38024e-05 0.00110871 -0.000494763
internal_weight=31 25 7 6 18
internal_count=31 25 7 6 18
is_linear=0
shrinkage=0.05


Tree=48
num_leaves=7
num_cat=0
split_feature=2 0 0 10 2 0
split_gain=0.00342687 0.00264572 0.00107327 0.000477196 0.000248945 6.5977e-05
threshold=0.8283808444408941 -0.50357207011940397 -0.50357207011940397 -0.10538853251981894 0.34747826426778033 0.93189773895659844
decision_type=2 2 2 2 2 2
left_child=2 -2 3 -1 -4 -3
right_child=1 5 4 -5 -6 -7
leaf_value=0.00041282838276986557 0 0.0017260521985590458 -0.00053749158230717651 0 0 0
leaf_weight=6 0.99999999999999989 3.9999999999999991 11.999999999999998 4.0000000000000053 2.9999999999999991 0.99999999999999989
leaf_count=6 1 4 12 4 3 1
internal_value=0 0.00107684 -0.000131578 0 -0.000442528 0.00156692
internal_weight=31 6 25 10 15 5
internal_count=31 6 25 10 15 5
is_linear=0
shrinkage=0.05


Tree=49
num_leaves=7
num_cat=0
split_feature=2 0 0 10 2 0
split_gain=0.00311599 0.00251151 0.000982 0.00043717 0.000225045 2.36173e-05
threshold=0.8283808444408941 -0.50357207011940397 -0.50357207011940397 -0.10538853251981894 0.34747826426778033 0.93189773895659844
decision_type=2 2 2 2 2 2
left_child=2 -2 3 -1 -4 -3
right_child=1 5 4 -5 -6 -7
leaf_value=0.00039513571520469014 0 0.001657010033726692 -0.00051268426190990101 0 0 0
leaf_weight=6 0.99999999999999989 3.9999999999999991 11.999999999999998 4.0000000000000053 2.9999999999999991 0.99999999999999989
leaf_count=6 1 4 12 4 3 1
internal_value=0 0.00102752 -0.000123938 0 -0.000422372 0.00150938
internal_weight=31 6 25 10 15 5
internal_count=31 6 25 10 15 5
is_linear=0
shrinkage=0.05


Tree=50
num_leaves=5
num_cat=0
split_feature=7 9 8 10
split_gain=0.00299254 0.00307675 0.00174157 0.00143231
threshold=-0.25055558913192255 -0.36356903745911612 1.6965903670365259 1.7804146273299442
decision_type=2 2 2 2
left_child=3 -2 -3 -1
right_child=1 2 -4 -5
leaf_value=-0.00054636028786797595 0 0.0017336502484977248 0 0
leaf_weight=16.000000000000007 6 4.9999999999999982 1.9999999999999998 1.9999999999999989
leaf_count=16 6 5 2 2
internal_value=0 0.000653969 0.00130764 -0.000280402
internal_weight=31 13 7 18
internal_count=31 13 7 18
is_linear=0
shrinkage=0.05


Tree=51
num_leaves=6
num_cat=0
split_feature=2 7 9 2 1
split_gain=0.00270472 0.00128494 0.000207857 0.000106085 6.51187e-05
threshold=0.8283808444408941 0.95971481603345643 -0.20226144581789365 -0.57583594624554879 1.1285818985670508
decision_type=2 2 2 2 2
left_child=1 3 -3 -1 -2
right_child=4 2 -4 -5 -6
leaf_value=-0.00061534080468118152 0.0011493278723210096 0 0.0003257555197924375 0 0
leaf_weight=9.0000000000000053 3.9999999999999991 3 3.9999999999999991 9.0000000000000018 1.9999999999999998
leaf_count=9 4 3 4 9 2
internal_value=0 -0.000110907 3.69817e-05 -0.000430497 0.000959313
internal_weight=31 25 7 18 6
internal_count=31 25 7 18 6
is_linear=0
shrinkage=0.05


Tree=52
num_leaves=4
num_cat=0
split_feature=10 7 10
split_gain=0.00253832 0.0018825 0.000722231
threshold=1.7804146273299442 -0.25055558913192255 -1.0403597346967877
decision_type=2 2 2
left_child=1 -1 -3
right_child=-2 2 -4
leaf_value=-0.00050436075742575593 0.0012545664748176933 0 0.00047301282518856166
leaf_weight=16.000000000000007 2.9999999999999991 2.9999999999999991 8.9999999999999982
leaf_count=16 3 3 9
internal_value=0 -4.15441e-05 0.000182258
internal_weight=31 28 12
internal_count=31 28 12
is_linear=0
shrinkage=0.05


Tree=53
num_leaves=4
num_cat=0
split_feature=10 7 9
split_gain=0.00234715 0.00169972 0.000697702
threshold=1.7804146273299442 -0.25055558913192255 -0.42983185322596879
decision_type=2 2 2
left_child=1 -1 -3
right_child=-2 2 -4
leaf_value=-0.00048062616562032507 0.0012075201561674476 0 0.00045847392774885521
leaf_weight=16.000000000000007 2.9999999999999991 2.9999999999999991 8.9999999999999982
leaf_count=16 3 3 9
internal_value=0 -3.49706e-05 0.000165884
internal_weight=31 28 12
internal_count=31 28 12
is_linear=0
shrinkage=0.05


Tree=54
num_leaves=7
num_cat=0
split_feature=2 0 7 9 2 0
split_gain=0.00218541 0.0020109 0.00102319 0.000151763 7.91037e-05 2.01986e-05
threshold=0.8283808444408941 -0.50357207011940397 0.95971481603345643 -0.20226144581789365 -0.57583594624554879 0.93189773895659844
decision_type=2 2 2 2 2 2
left_child=2 -2 4 -4 -1 -3
right_child=1 5 3 -5 -6 -7
leaf_value=-0.00054332606599200484 0 0.0014383993446826936 0 0.00027546579577028747 0 0
leaf_weight=9.0000000000000053 0.99999999999999989 3.9999999999999991 3 3.9999999999999991 9.0000000000000018 0.99999999999999989
leaf_count=9 1 4 3 4 9 1
internal_value=0 0.000867445 -8.68893e-05 0 -0.000380738 0.00130986
internal_weight=31 6 25 7 18 5
internal_count=31 6 25 7 18 5
is_linear=0
shrinkage=0.05


Tree=55
num_leaves=5
num_cat=0
split_feature=7 9 10 10
split_gain=0.00205484 0.00256139 0.00099658 0.000377918
threshold=-0.25055558913192255 -0.36356903745911612 1.7804146273299442 -0.62603703628875396
decision_type=2 2 2 2
left_child=2 -2 -1 -3
right_child=1 3 -4 -5
leaf_value=-0.00044362630902101567 0 0 0 0.0015251982733607294
leaf_weight=16.000000000000007 6 3 1.9999999999999989 3.9999999999999982
leaf_count=16 6 3 2 4
internal_value=0 0.0005531 -0.000212036 0.00115577
internal_weight=31 13 18 7
internal_count=31 13 18 7
is_linear=0
shrinkage=0.05


Tree=56
num_leaves=4
num_cat=0
split_feature=10 7 9
split_gain=0.00190313 0.00128866 0.000569045
threshold=1.7804146273299442 -0.25055558913192255 -0.42983185322596879
decision_type=2 2 2
left_child=1 -1 -3
right_child=-2 2 -4
leaf_value=-0.00042274977708824286 0.0010892332717776299 0 0.00040226331289159131
leaf_weight=16.000000000000007 2.9999999999999991 2.9999999999999991 8.9999999999999982
leaf_count=16 3 3 9
internal_value=0 -2.0426e-05 0.000122646
internal_weight=31 28 12
internal_count=31 28 12
is_linear=0
shrinkage=0.05


Tree=57
num_leaves=4
num_cat=0
split_feature=10 7 9
split_gain=0.0017612 0.00116244 0.000528855
threshold=1.7804146273299442 -0.25055558913192255 -0.42983185322596879
decision_type=2 2 2
left_child=1 -1 -3
right_child=-2 2 -4
leaf_value=-0.00040285567325019429 0.0010483869537711143 0 0.00038416146869349178
leaf_weight=16.000000000000007 2.9999999999999991 2.9999999999999991 8.9999999999999982
leaf_count=16 3 3 9
internal_value=0 -1.5006e-05 0.000108721
internal_weight=31 28 12
internal_count=31 28 12
is_linear=0
shrinkage=0.05


Tree=58
num_leaves=4
num_cat=0
split_feature=10 7 9
split_gain=0.00163029 0.00104839 0.000491038
threshold=1.7804146273299442 -0.25055558913192255 -0.42983185322596879
decision_type=2 2 2
left_child=1 -1 -3
right_child=-2 2 -4
leaf_value=-0.00038389773683293761 0.001009072451852262 0 0.00036687420436646787
leaf_weight=16.000000000000007 2.9999999999999991 2.9999999999999991 8.9999999999999982
leaf_count=16 3 3 9
internal_value=0 -9.85382e-06 9.54231e-05
internal_weight=31 28 12
internal_count=31 28 12
is_linear=0
shrinkage=0.05


Tree=59
num_leaves=6
num_cat=0
split_feature=2 7 2 9 1
split_gain=0.00153176 0.000680451 8.02629e-05 7.05461e-05 3.1943e-05
threshold=0.8283808444408941 0.95971481603345643 -0.57583594624554879 -0.20226144581789365 1.1285818985670508
decision_type=2 2 2 2 2
left_child=1 2 -1 -3 -2
right_child=4 3 -4 -5 -6
leaf_value=-0.00044448555202688985 0.00087582753598690029 0 0 0.00018781124241650101 0
leaf_weight=9.0000000000000053 3.9999999999999991 3 9.0000000000000018 3.9999999999999991 1.9999999999999998
leaf_count=9 4 3 9 4 2
internal_value=0 -5.33095e-05 -0.00030565 0 0.000732463
internal_weight=31 25 18 7 6
internal_count=31 25 18 7 6
is_linear=0
shrinkage=0.05


Tree=60
num_leaves=4
num_cat=0
split_feature=10 7 10
split_gain=0.00144205 0.000880187 0.00043234
threshold=1.7804146273299442 -0.25055558913192255 -1.0403597346967877
decision_type=2 2 2
left_child=1 -1 -3
right_child=-2 2 -4
leaf_value=-0.00035406617297078743 0.00094933654880151146 0 0.00033916255622170867
leaf_weight=16.000000000000007 2.9999999999999991 2.9999999999999991 8.9999999999999982
leaf_count=16 3 3 9
internal_value=0 -2.37456e-06 7.30971e-05
internal_weight=31 28 12
internal_count=31 28 12
is_linear=0
shrinkage=0.05


Tree=61
num_leaves=5
num_cat=0
split_feature=10 9 9 2
split_gain=0.00133586 0.000236085 0.000338692 0.000155272
threshold=1.7804146273299442 -0.38067136158097387 0.56563985941780104 0.34747826426778033
decision_type=2 2 2 2
left_child=1 3 -3 -1
right_child=-2 2 -4 -5
leaf_value=-0.00029823617782147413 0.00091373644070699808 0.00024991251761093732 -8.3423485979437781e-05 0
leaf_weight=10.000000000000005 2.9999999999999991 11.999999999999998 3.9999999999999991 1.9999999999999989
leaf_count=10 3 12 4 2
internal_value=0 0 0 -0.000213075
internal_weight=31 28 16 12
internal_count=31 28 16 12
is_linear=0
shrinkage=0.05


Tree=62
num_leaves=5
num_cat=0
split_feature=7 9 8 10
split_gain=0.00129016 0.00209863 0.00134774 0.000603881
threshold=-0.25055558913192255 -0.36356903745911612 1.6965903670365259 1.7804146273299442
decision_type=2 2 2 2
left_child=3 -2 -3 -1
right_child=1 2 -4 -5
leaf_value=-0.00033395781126968984 0 0.0013817290899654231 0 0
leaf_weight=16.000000000000007 6 4.9999999999999982 1.9999999999999998 1.9999999999999989
leaf_count=16 6 5 2 2
internal_value=0 0.000450328 0.00100534 -0.000142583
internal_weight=31 13 7 18
internal_count=31 13 7 18
is_linear=0
shrinkage=0.05


Tree=63
num_leaves=4
num_cat=0
split_feature=10 7 10
split_gain=0.00118942 0.000695738 0.00032706
threshold=1.7804146273299442 -0.25055558913192255 -1.0403597346967877
decision_type=2 2 2
left_child=1 -1 -3
right_child=-2 2 -4
leaf_value=-0.00031824215780943619 0.000862199692055583 0 0.00028900988388340918
leaf_weight=16.000000000000007 2.9999999999999991 2.9999999999999991 8.9999999999999982
leaf_count=16 3 3 9
internal_value=0 0 3.68123e-05
internal_weight=31 28 12
internal_count=31 28 12
is_linear=0
shrinkage=0.05


Tree=64
num_leaves=4
num_cat=0
split_feature=10 7 9
split_gain=0.00110189 0.000629135 0.000301722
threshold=1.7804146273299442 -0.25055558913192255 -0.42983185322596879
decision_type=2 2 2
left_child=1 -1 -3
right_child=-2 2 -4
leaf_value=-0.00030326605459456043 0.00082986724562942975 0 0.00027634193672565743
leaf_weight=16.000000000000007 2.9999999999999991 2.9999999999999991 8.9999999999999982
leaf_count=16 3 3 9
internal_value=0 0 2.68081e-05
internal_weight=31 28 12
internal_count=31 28 12
is_linear=0
shrinkage=0.05


Tree=65
num_leaves=5
num_cat=0
split_feature=2 0 0 9
split_gain=0.0010393 0.00127576 0.000453018 0.000226809
threshold=0.8283808444408941 -0.50357207011940397 -0.50357207011940397 0.56563985941780104
decision_type=2 2 2 2
left_child=2 -2 3 -1
right_child=1 -3 -4 -5
leaf_value=0.0002662290024454703 0 0.00098034934761623543 -0.00026852239090658259 0
leaf_weight=7.0000000000000053 0.99999999999999989 4.9999999999999991 14.999999999999998 3
leaf_count=7 1 5 15 3
internal_value=0 0.000606762 -2.85039e-05 0
internal_weight=31 6 25 10
internal_count=31 6 25 10
is_linear=0
shrinkage=0.05


Tree=66
num_leaves=5
num_cat=0
split_feature=7 9 10 10
split_gain=0.000960021 0.00180392 0.000453764 0.000340112
threshold=-0.25055558913192255 -0.36356903745911612 1.7804146273299442 -0.62603703628875396
decision_type=2 2 2 2
left_child=2 -2 -1 -3
right_child=1 3 -4 -5
leaf_value=-0.00028423582614563831 0 0 0 0.0012264667600393299
leaf_weight=16.000000000000007 6 3 1.9999999999999989 3.9999999999999982
leaf_count=16 6 3 2 4
internal_value=0 0.000392886 -0.000112161 0.000913156
internal_weight=31 13 18 7
internal_count=31 13 18 7
is_linear=0
shrinkage=0.05


Tree=67
num_leaves=4
num_cat=0
split_feature=10 7 1
split_gain=0.000891986 0.000498883 0.000150641
threshold=1.7804146273299442 -0.25055558913192255 -1.0000000180025095e-35
decision_type=2 2 2
left_child=1 -1 -3
right_child=-2 2 -4
leaf_value=-0.00027086001656511239 0.00074665327090770004 0 0.00021696881543903148
leaf_weight=16.000000000000007 2.9999999999999991 5 6.9999999999999982
leaf_count=16 3 5 7
internal_value=0 0 0
internal_weight=31 28 12
internal_count=31 28 12
is_linear=0
shrinkage=0.05


Tree=68
num_leaves=5
num_cat=0
split_feature=2 0 0 9
split_gain=0.000820942 0.00111947 0.000371302 0.000190882
threshold=0.8283808444408941 -0.50357207011940397 -0.50357207011940397 0.56563985941780104
decision_type=2 2 2 2
left_child=2 -2 3 -1
right_child=1 -3 -4 -5
leaf_value=0.00024423448106972477 0 0.00089858594660957656 -0.00024167937746824464 0
leaf_weight=7.0000000000000053 0.99999999999999989 4.9999999999999991 14.999999999999998 3
leaf_count=7 1 5 15 3
internal_value=0 0.000540644 -1.55502e-05 0
internal_weight=31 6 25 10
internal_count=31 6 25 10
is_linear=0
shrinkage=0.05


Tree=69
num_leaves=5
num_cat=0
split_feature=7 9 8 10
split_gain=0.000789743 0.00160998 0.00108157 0.000371608
threshold=-0.25055558913192255 -0.36356903745911612 1.6965903670365259 1.7804146273299442
decision_type=2 2 2 2
left_child=3 -2 -3 -1
right_child=1 2 -4 -5
leaf_value=-0.00025387130129863223 0 0.0011927976086735727 0 0
leaf_weight=16.000000000000007 6 4.9999999999999982 1.9999999999999998 1.9999999999999989
leaf_count=16 6 5 2 2
internal_value=0 0.000359336 0.000853863 -9.36515e-05
internal_weight=31 13 7 18
internal_count=31 13 7 18
is_linear=0
shrinkage=0.05


Tree=70
num_leaves=4
num_cat=0
split_feature=10 7 9
split_gain=0.00071834 0.000397986 0.000148555
threshold=1.7804146273299442 -0.25055558913192255 -0.42983185322596879
decision_type=2 2 2
left_child=1 -1 -3
right_child=-2 2 -4
leaf_value=-0.00024192442199872687 0.00067004679702222349 0 0.00019271409913199021
leaf_weight=16.000000000000007 2.9999999999999991 2.9999999999999991 8.9999999999999982
leaf_count=16 3 3 9
internal_value=0 0 0
internal_weight=31 28 12
internal_count=31 28 12
is_linear=0
shrinkage=0.05


Tree=71
num_leaves=5
num_cat=0
split_feature=10 7 1 2
split_gain=0.000665475 0.00036141 8.24577e-05 8.10508e-06
threshold=1.7804146273299442 -0.25055558913192255 -1.0000000180025095e-35 -0.57583594624554879
decision_type=2 2 2 2
left_child=1 3 -3 -1
right_child=-2 2 -4 -5
leaf_value=-0.00030393887357786273 0.0006449200748465955 0 0.00016052421255153605 0
leaf_weight=9.0000000000000053 2.9999999999999991 5 6.9999999999999982 7.0000000000000027
leaf_count=9 3 5 7 7
internal_value=0 0 0 -0.00023054
internal_weight=31 28 12 16
internal_count=31 28 12 16
is_linear=0
shrinkage=0.05


Tree=72
num_leaves=5
num_cat=0
split_feature=10 0 2 4
split_gain=0.0006165 5.81297e-05 0.000204218 3.12548e-06
threshold=1.7804146273299442 -0.8624395223884046 1.7132375755124842 2.7005829991994053
decision_type=2 2 2 2
left_child=1 -1 -3 -2
right_child=3 2 -4 -5
leaf_value=0 0.00071857828646898264 -0.00017672537306290384 0 0
leaf_weight=7.0000000000000062 1.9999999999999989 20.000000000000004 0.999999999999999 1.0000000000000002
leaf_count=7 2 20 1 1
internal_value=0 0 -8.12751e-05 0.000620736
internal_weight=31 28 21 3
internal_count=31 28 21 3
is_linear=0
shrinkage=0.05


Tree=73
num_leaves=5
num_cat=0
split_feature=7 9 8 4
split_gain=0.000629726 0.00141777 0.000968894 2.33906e-05
threshold=-0.25055558913192255 -0.36356903745911612 1.6965903670365259 2.7005829991994053
decision_type=2 2 2 2
left_child=3 -2 -3 -1
right_child=1 2 -4 -5
leaf_value=-9.0809250767860108e-05 0 0.0011143768485635519 0 0
leaf_weight=17.000000000000007 6 4.9999999999999982 1.9999999999999998 0.999999999999999
leaf_count=17 6 5 2 1
internal_value=0 0.000325616 0.000792841 -6.88084e-05
internal_weight=31 13 7 18
internal_count=31 13 7 18
is_linear=0
shrinkage=0.05


Tree=74
num_leaves=5
num_cat=0
split_feature=10 7 1 2
split_gain=0.000556916 0.000305572 5.32144e-05 6.0293e-06
threshold=1.7804146273299442 -0.25055558913192255 -1.0000000180025095e-35 -0.57583594624554879
decision_type=2 2 2 2
left_child=1 3 -3 -1
right_child=-2 2 -4 -5
leaf_value=-0.00027910619089379886 0.00058997649583034215 0 0.00012895544990897177 0
leaf_weight=9.0000000000000053 2.9999999999999991 5 6.9999999999999982 7.0000000000000027
leaf_count=9 3 5 7 7
internal_value=0 0 0 -0.000211984
internal_weight=31 28 12 16
internal_count=31 28 12 16
is_linear=0
shrinkage=0.05


Tree=75
num_leaves=5
num_cat=0
split_feature=7 9 8 2
split_gain=0.000533798 0.00129228 0.000892608 0.000255685
threshold=-0.25055558913192255 -0.36356903745911612 1.6965903670365259 -0.57583594624554879
decision_type=2 2 2 2
left_child=3 -2 -3 -1
right_child=1 2 -4 -5
leaf_value=-0.00026654641190543759 0 0.0010587295175840459 0 0
leaf_weight=9.0000000000000018 6 4.9999999999999982 1.9999999999999998 9.0000000000000018
leaf_count=9 6 5 2 9
internal_value=0 0.000300385 0.000749494 -6.12406e-05
internal_weight=31 13 7 18
internal_count=31 13 7 18
is_linear=0
shrinkage=0.05


Tree=76
num_leaves=5
num_cat=0
split_feature=2 0 0 9
split_gain=0.000475107 0.000846431 0.000239023 0.000107535
threshold=0.8283808444408941 -0.50357207011940397 -0.50357207011940397 0.56563985941780104
decision_type=2 2 2 2
left_child=2 -2 3 -1
right_child=1 -3 -4 -5
leaf_value=0.00018331602972466478 0 0.00074205173179507254 -0.00019325450541145983 0
leaf_weight=7.0000000000000053 0.99999999999999989 4.9999999999999991 14.999999999999998 3
leaf_count=7 1 5 15 3
internal_value=0 0.000411924 0 0
internal_weight=31 6 25 10
internal_count=31 6 25 10
is_linear=0
shrinkage=0.05


Tree=77
num_leaves=5
num_cat=0
split_feature=7 10 10 0
split_gain=0.000447239 0.00116946 0.000232453 0.00019948
threshold=-0.25055558913192255 -0.62603703628875396 1.7804146273299442 0.93189773895659844
decision_type=2 2 2 2
left_child=2 -2 -1 -3
right_child=1 3 -4 -5
leaf_value=-0.00019404172842555178 0 0.00094673154503107076 0 0
leaf_weight=16.000000000000007 7 3.9999999999999982 1.9999999999999989 1.9999999999999998
leaf_count=16 7 4 2 2
internal_value=0 0.000275051 -5.57033e-05 0.000754302
internal_weight=31 13 18 6
internal_count=31 13 18 6
is_linear=0
shrinkage=0.05


Tree=78
num_leaves=4
num_cat=0
split_feature=7 9 2
split_gain=0.000400189 0.00109705 0.000216805
threshold=-0.25055558913192255 -0.36356903745911612 -0.57583594624554879
decision_type=2 2 2
left_child=2 -2 -1
right_child=1 -3 -4
leaf_value=-0.00024185547884553659 0 0.00068008956499397764 0
leaf_weight=9.0000000000000018 6 6.9999999999999982 9.0000000000000018
leaf_count=9 6 7 9
internal_value=0 0.000261526 -4.75332e-05
internal_weight=31 13 18
internal_count=31 13 18
is_linear=0
shrinkage=0.05


Tree=79
num_leaves=6
num_cat=0
split_feature=10 9 9 2 4
split_gain=0.000410396 5.0832e-05 9.61049e-05 4.59076e-05 5.06969e-06
threshold=1.7804146273299442 -0.38067136158097387 0.56563985941780104 0.34747826426778033 2.7005829991994053
decision_type=2 2 2 2 2
left_child=1 3 -3 -1 -2
right_child=4 2 -4 -5 -6
leaf_value=-0.00014827772395537139 0.00058840615053971609 0.00013594742756910046 0 0 0
leaf_weight=10.000000000000005 1.9999999999999989 11.999999999999998 3.9999999999999991 1.9999999999999989 1.0000000000000002
leaf_count=10 2 12 4 2 1
internal_value=0 0 0 -9.88706e-05 0.000506456
internal_weight=31 28 16 12 3
internal_count=31 28 16 12 3
is_linear=0
shrinkage=0.05


Tree=80
num_leaves=5
num_cat=0
split_feature=10 7 9 4
split_gain=0.000386902 0.000214133 3.04966e-05 1.3275e-06
threshold=1.7804146273299442 -0.25055558913192255 -0.42983185322596879 2.7005829991994053
decision_type=2 2 2 2
left_child=1 -1 -3 -2
right_child=3 2 -4 -5
leaf_value=-0.00017745476243469639 0.00056879255920648563 0 8.7316358287353049e-05 0
leaf_weight=16.000000000000007 1.9999999999999989 2.9999999999999991 8.9999999999999982 1.0000000000000002
leaf_count=16 2 3 9 1
internal_value=0 0 0 0.000491746
internal_weight=31 28 12 3
internal_count=31 28 12 3
is_linear=0
shrinkage=0.05


Tree=81
num_leaves=5
num_cat=0
split_feature=10 9 9 2
split_gain=0.00036485 4.12462e-05 8.88761e-05 4.00064e-05
threshold=1.7804146273299442 -0.38067136158097387 0.56563985941780104 0.34747826426778033
decision_type=2 2 2 2
left_child=1 3 -3 -1
right_child=-2 2 -4 -5
leaf_value=-0.00013589151682522643 0.00047752611106261606 0.0001307346987036558 0 0
leaf_weight=10.000000000000005 2.9999999999999991 11.999999999999998 3.9999999999999991 1.9999999999999989
leaf_count=10 3 12 4 2
internal_value=0 0 0 -8.90616e-05
internal_weight=31 28 16 12
internal_count=31 28 16 12
is_linear=0
shrinkage=0.05


Tree=82
num_leaves=5
num_cat=0
split_feature=2 0 0 9
split_gain=0.000314078 0.000697169 0.000177656 6.50695e-05
threshold=0.8283808444408941 -0.50357207011940397 -0.50357207011940397 0.56563985941780104
decision_type=2 2 2 2
left_child=2 -2 3 -1
right_child=1 -3 -4 -5
leaf_value=0.00014259806252084657 0 0.00064911686039219297 -0.0001666096705957898 0
leaf_weight=7.0000000000000053 0.99999999999999989 4.9999999999999991 14.999999999999998 3
leaf_count=7 1 5 15 3
internal_value=0 0.000334919 0 0
internal_weight=31 6 25 10
internal_count=31 6 25 10
is_linear=0
shrinkage=0.05


Tree=83
num_leaves=4
num_cat=0
split_feature=7 9 4
split_gain=0.000299562 0.000926929 8.24807e-06
threshold=-0.25055558913192255 -0.36356903745911612 2.7005829991994053
decision_type=2 2 2
left_child=2 -2 -1
right_child=1 -3 -4
leaf_value=-5.2264193331615758e-05 0 0.00061620608670637017 0
leaf_weight=17.000000000000007 6 6.9999999999999982 0.999999999999999
leaf_count=17 6 7 1
internal_value=0 0.000226835 -3.87622e-05
internal_weight=31 13 18
internal_count=31 13 18
is_linear=0
shrinkage=0.05


Tree=84
num_leaves=5
num_cat=0
split_feature=7 9 2 7
split_gain=0.000260417 0.000860744 0.00017303 9.05871e-05
threshold=-0.25055558913192255 -0.36356903745911612 -0.57583594624554879 2.1066534752354991
decision_type=2 2 2 2
left_child=2 -2 -1 -3
right_child=1 3 -4 -5
leaf_value=-0.0002139583071693777 0 0.00065510788267212272 0 0
leaf_weight=9.0000000000000018 6 5.9999999999999982 9.0000000000000018 0.99999999999999989
leaf_count=9 6 6 9 1
internal_value=0 0.00021143 -3.64241e-05 0.000589247
internal_weight=31 13 18 7
internal_count=31 13 18 7
is_linear=0
shrinkage=0.05


Tree=85
num_leaves=5
num_cat=0
split_feature=10 7 7 9
split_gain=0.000282292 0.000167514 8.13797e-06 5.70395e-06
threshold=1.7804146273299442 -0.25055558913192255 -0.50314711877872909 -0.45965663797506212
decision_type=2 2 2 2
left_child=1 -1 -2 -3
right_child=2 3 -4 -5
leaf_value=-0.00015695360516581458 0 0 0.0004919605577985445 3.6004883533512984e-05
leaf_weight=16.000000000000007 1.0000000000000002 1.9999999999999989 1.9999999999999989 9.9999999999999982
leaf_count=16 1 2 2 10
internal_value=0 0 0.000420039 0
internal_weight=31 28 3 12
internal_count=31 28 3 12
is_linear=0
shrinkage=0.05


Tree=86
num_leaves=6
num_cat=0
split_feature=10 7 4 9 2
split_gain=0.000266003 0.000152119 5.38804e-06 5.1972e-06 3.53843e-06
threshold=1.7804146273299442 -0.25055558913192255 2.7005829991994053 -0.45965663797506212 -0.57583594624554879
decision_type=2 2 2 2 2
left_child=1 4 -2 -3 -1
right_child=2 3 -4 -5 -6
leaf_value=-0.00019726727670058591 0.00047556189199288683 0 0 3.4368315087207993e-05 0
leaf_weight=9.0000000000000053 1.9999999999999989 1.9999999999999989 1.0000000000000002 9.9999999999999982 7.0000000000000027
leaf_count=9 2 2 1 10 7
internal_value=0 0 0.00040774 0 -0.000149568
internal_weight=31 28 3 12 16
internal_count=31 28 3 12 16
is_linear=0
shrinkage=0.05


Tree=87
num_leaves=4
num_cat=0
split_feature=10 2 4
split_gain=0.000250717 1.17183e-05 2.88313e-06
threshold=1.7804146273299442 1.7132375755124842 2.7005829991994053
decision_type=2 2 2
left_child=1 -1 -2
right_child=2 -3 -4
leaf_value=-3.2346152521703111e-05 0.00045970978836218509 0 0
leaf_weight=27.000000000000007 1.9999999999999989 0.999999999999999 1.0000000000000002
leaf_count=27 2 1 1
internal_value=0 0 0.000395851
internal_weight=31 28 3
internal_count=31 28 3
is_linear=0
shrinkage=0.05


Tree=88
num_leaves=6
num_cat=0
split_feature=10 9 9 2 4
split_gain=0.00023637 2.20112e-05 5.44749e-05 2.64878e-05 6.05048e-07
threshold=1.7804146273299442 -0.38067136158097387 0.56563985941780104 0.34747826426778033 2.7005829991994053
decision_type=2 2 2 2 2
left_child=1 3 -3 -1 -2
right_child=4 2 -4 -5 -6
leaf_value=-0.0001049881131885657 0.00044438611716032019 0.00010235201818152113 0 0 0
leaf_weight=10.000000000000005 1.9999999999999989 11.999999999999998 3.9999999999999991 1.9999999999999989 1.0000000000000002
leaf_count=10 2 12 4 2 1
internal_value=0 0 0 -6.50609e-05 0.000384358
internal_weight=31 28 16 12 3
internal_count=31 28 16 12 3
is_linear=0
shrinkage=0.05


Tree=89
num_leaves=5
num_cat=0
split_feature=10 7 9 2
split_gain=0.000222903 0.000137438 4.3244e-06 7.15423e-07
threshold=1.7804146273299442 -0.25055558913192255 -0.45965663797506212 -0.57583594624554879
decision_type=2 2 2 2
left_child=1 3 -3 -1
right_child=-2 2 -4 -5
leaf_value=-0.00018584527121856794 0.00037324834964238104 0 3.1349921376783037e-05 0
leaf_weight=9.0000000000000053 2.9999999999999991 1.9999999999999989 9.9999999999999982 7.0000000000000027
leaf_count=9 3 2 10 7
internal_value=0 0 0 -0.000142167
internal_weight=31 28 12 16
internal_count=31 28 12 16
is_linear=0
shrinkage=0.05


Tree=90
num_leaves=5
num_cat=0
split_feature=10 7 9 4
split_gain=0.000206499 0.000128091 3.9402e-06 2.29984e-06
threshold=1.7804146273299442 -0.25055558913192255 -0.45965663797506212 2.7005829991994053
decision_type=2 2 2 2
left_child=1 -1 -3 -2
right_child=3 2 -4 -5
leaf_value=-0.00013724784531137516 0.00041713164498408632 0 2.9924919521859398e-05 0
leaf_weight=16.000000000000007 1.9999999999999989 1.9999999999999989 9.9999999999999982 1.0000000000000002
leaf_count=16 2 2 10 1
internal_value=0 0 0 0.000359252
internal_weight=31 28 12 3
internal_count=31 28 12 3
is_linear=0
shrinkage=0.05


Tree=91
num_leaves=5
num_cat=0
split_feature=10 7 2 7
split_gain=0.000194684 0.000116319 1.06369e-06 4.26345e-07
threshold=1.7804146273299442 -0.25055558913192255 -0.57583594624554879 -0.50314711877872909
decision_type=2 2 2 2
left_child=1 2 -1 -2
right_child=3 -3 -4 -5
leaf_value=-0.0001713060615584253 0 0 0 0.00040322718520959216
leaf_weight=9.0000000000000053 1.0000000000000002 11.999999999999998 7.0000000000000027 1.9999999999999989
leaf_count=9 1 12 7 2
internal_value=0 0 -0.000130789 0.000348823
internal_weight=31 28 16 3
internal_count=31 28 16 3
is_linear=0
shrinkage=0.05


Tree=92
num_leaves=5
num_cat=0
split_feature=9 9 7 10
split_gain=0.000189019 0.000776826 0.000451877 2.05269e-05
threshold=-0.38067136158097387 0.56563985941780104 -0.79466114797175214 -1.0000000180025095e-35
decision_type=2 2 2 2
left_child=3 2 -2 -1
right_child=1 -3 -4 -5
leaf_value=-8.4336280172768341e-05 0 0 0.00051963525107846808 0
leaf_weight=10.999999999999998 2.0000000000000027 4.9999999999999991 11.999999999999998 1.0000000000000024
leaf_count=11 2 5 12 1
internal_value=0 0.000148073 0.000398378 -5.11664e-05
internal_weight=31 19 14 12
internal_count=31 19 14 12
is_linear=0
shrinkage=0.05


Tree=93
num_leaves=3
num_cat=0
split_feature=10 7
split_gain=0.000176621 0.000116039
threshold=1.7804146273299442 -0.25055558913192255
decision_type=2 2
left_child=1 -1
right_child=-2 -3
leaf_value=-0.00013063155032475197 0.00033224719343706962 0
leaf_weight=16.000000000000007 2.9999999999999991 11.999999999999998
leaf_count=16 3 12
internal_value=0 0
internal_weight=31 28
internal_count=31 28
is_linear=0
shrinkage=0.05


Tree=94
num_leaves=5
num_cat=0
split_feature=10 7 9 7
split_gain=0.000163623 0.000105375 7.20619e-07 7.02268e-07
threshold=1.7804146273299442 -0.25055558913192255 -0.45965663797506212 -0.50314711877872909
decision_type=2 2 2 2
left_child=1 -1 -3 -2
right_child=3 2 -4 -5
leaf_value=-0.00012448418721118387 0 0 1.2797541778788622e-05 0.00037005080531040823
leaf_weight=16.000000000000007 1.0000000000000002 1.9999999999999989 9.9999999999999982 1.9999999999999989
leaf_count=16 1 2 10 2
internal_value=0 0 0 0.000319788
internal_weight=31 28 12 3
internal_count=31 28 12 3
is_linear=0
shrinkage=0.05


Tree=95
num_leaves=5
num_cat=0
split_feature=10 7 2 9
split_gain=0.000154293 9.56906e-05 6.63758e-07 6.56597e-07
threshold=1.7804146273299442 -0.25055558913192255 -0.57583594624554879 -0.45965663797506212
decision_type=2 2 2 2
left_child=1 2 -1 -3
right_child=-2 3 -4 -5
leaf_value=-0.00015520502161234606 0.00031053662358317521 0 0 1.2215833465399366e-05
leaf_weight=9.0000000000000053 2.9999999999999991 1.9999999999999989 7.0000000000000027 9.9999999999999982
leaf_count=9 3 2 7 10
internal_value=0 0 -0.000118626 0
internal_weight=31 28 16 12
internal_count=31 28 16 12
is_linear=0
shrinkage=0.05


Tree=96
num_leaves=4
num_cat=0
split_feature=7 10 10
split_gain=0.000149918 0.000789252 8.88266e-05
threshold=-0.25055558913192255 -0.62603703628875396 1.7804146273299442
decision_type=2 2 2
left_child=2 -2 -1
right_child=1 -3 -4
leaf_value=-0.00011451773318078582 0 0.00057904466587517945 0
leaf_weight=16.000000000000007 7 5.9999999999999982 1.9999999999999989
leaf_count=16 7 6 2
internal_value=0 0.000163427 -6.7932e-06
internal_weight=31 13 18
internal_count=31 13 18
is_linear=0
shrinkage=0.05


Tree=97
num_leaves=5
num_cat=0
split_feature=9 9 7 10
split_gain=0.000138272 0.000688329 0.000412995 1.41449e-05
threshold=-0.38067136158097387 0.56563985941780104 -0.79466114797175214 -1.0000000180025095e-35
decision_type=2 2 2 2
left_child=3 2 -2 -1
right_child=1 -3 -4 -5
leaf_value=-6.666490386123767e-05 0 0 0.00048682822057834045 0
leaf_weight=10.999999999999998 2.0000000000000027 4.9999999999999991 11.999999999999998 1.0000000000000024
leaf_count=11 2 5 12 1
internal_value=0 0.000128006 0.000369552 -3.71777e-05
internal_weight=31 19 14 12
internal_count=31 19 14 12
is_linear=0
shrinkage=0.05


Tree=98
num_leaves=3
num_cat=0
split_feature=10 7
split_gain=0.000130479 8.75739e-05
threshold=1.7804146273299442 -0.25055558913192255
decision_type=2 2
left_child=1 -1
right_child=-2 -3
leaf_value=-0.00011348354876698812 0.00028556814184412357 0
leaf_weight=16.000000000000007 2.9999999999999991 11.999999999999998
leaf_count=16 3 12
internal_value=0 0
internal_weight=31 28
internal_count=31 28
is_linear=0
shrinkage=0.05


Tree=99
num_leaves=4
num_cat=0
split_feature=10 7 4
split_gain=0.000120876 7.95256e-05 2.0661e-06
threshold=1.7804146273299442 -0.25055558913192255 2.7005829991994053
decision_type=2 2 2
left_child=1 -1 -2
right_child=2 -3 -4
leaf_value=-0.00010814314790289186 0.00032008112718661617 0 0
leaf_weight=16.000000000000007 1.9999999999999989 11.999999999999998 1.0000000000000002
leaf_count=16 2 12 1
internal_value=0 0 0.000274859
internal_weight=31 28 3
internal_count=31 28 3
is_linear=0
shrinkage=0.05


Tree=100
num_leaves=5
num_cat=0
split_feature=10 7 2 4
split_gain=0.00011394 7.22169e-05 2.08941e-06 9.42278e-07
threshold=1.7804146273299442 -0.25055558913192255 -0.57583594624554879 2.7005829991994053
decision_type=2 2 2 2
left_child=1 2 -1 -2
right_child=3 -3 -4 -5
leaf_value=-0.00013629594864323722 0.00030941177159547799 0 0 0
leaf_weight=9.0000000000000053 1.9999999999999989 11.999999999999998 7.0000000000000027 1.0000000000000002
leaf_count=9 2 12 7 1
internal_value=0 0 -0.000103054 0.000266857
internal_weight=31 28 16 3
internal_count=31 28 16 3
is_linear=0
shrinkage=0.05


Tree=101
num_leaves=3
num_cat=0
split_feature=10 7
split_gain=0.000107431 6.72489e-05
threshold=1.7804146273299442 -0.25055558913192255
decision_type=2 2
left_child=1 -1
right_child=-2 -3
leaf_value=-9.9446219392120786e-05 0.00025912195094861083 0
leaf_weight=16.000000000000007 2.9999999999999991 11.999999999999998
leaf_count=16 3 12
internal_value=0 0
internal_weight=31 28
internal_count=31 28
is_linear=0
shrinkage=0.05


Tree=102
num_leaves=5
num_cat=0
split_feature=9 9 1 10
split_gain=0.000108124 0.000634124 0.000352458 9.91119e-06
threshold=-0.38067136158097387 0.56563985941780104 -1.0120552780649075 -1.0000000180025095e-35
decision_type=2 2 2 2
left_child=3 2 -2 -1
right_child=1 -3 -4 -5
leaf_value=-5.1405304742123287e-05 0 0 0.00044157445821578484 0
leaf_weight=10.999999999999998 1.0000000000000024 4.9999999999999991 12.999999999999998 1.0000000000000024
leaf_count=11 1 5 13 1
internal_value=0 0.000114756 0.000351064 -2.30919e-05
internal_weight=31 19 14 12
internal_count=31 19 14 12
is_linear=0
shrinkage=0.05


Tree=103
num_leaves=4
num_cat=0
split_feature=10 7 4
split_gain=9.0909e-05 6.65163e-05 5.26644e-06
threshold=1.7804146273299442 -0.25055558913192255 2.7005829991994053
decision_type=2 2 2
left_child=1 -1 -2
right_child=2 -3 -4
leaf_value=-9.8903059740276851e-05 0.00028310103962818773 0 0
leaf_weight=16.000000000000007 1.9999999999999989 11.999999999999998 1.0000000000000002
leaf_count=16 2 12 1
internal_value=0 0 0.000238366
internal_weight=31 28 3
internal_count=31 28 3
is_linear=0
shrinkage=0.05


Tree=104
num_leaves=4
num_cat=0
split_feature=2 7 7
split_gain=8.38814e-05 4.072e-05 1.76997e-05
threshold=0.8283808444408941 0.95971481603345643 -0.25055558913192255
decision_type=2 2 2
left_child=1 -1 -2
right_child=2 -3 -4
leaf_value=-7.3197597306907911e-05 0 0 0.00025196856702677898
leaf_weight=18.000000000000007 3 6.9999999999999991 2.9999999999999991
leaf_count=18 3 7 3
internal_value=0 0 0.000173083
internal_weight=31 25 6
internal_count=31 25 6
is_linear=0
shrinkage=0.05


Tree=105
num_leaves=5
num_cat=0
split_feature=9 9 7 10
split_gain=8.40311e-05 0.000580427 0.000368355 7.60084e-06
threshold=-0.38067136158097387 0.56563985941780104 -0.79466114797175214 1.0000000180025095e-35
decision_type=2 2 2 2
left_child=3 2 -2 -1
right_child=1 -3 -4 -5
leaf_value=-4.3419635185273335e-05 0 0 0.0004453529311845509 0
leaf_weight=11 2.0000000000000027 4.9999999999999991 11.999999999999998 1.0000000000000007
leaf_count=11 2 5 12 1
internal_value=0 0.000101601 0.000332418 -1.66896e-05
internal_weight=31 19 14 12
internal_count=31 19 14 12
is_linear=0
shrinkage=0.05


Tree=106
num_leaves=5
num_cat=0
split_feature=10 7 4 2
split_gain=7.92609e-05 6.18425e-05 3.13851e-06 1.00452e-07
threshold=1.7804146273299442 -0.25055558913192255 2.7005829991994053 -0.57583594624554879
decision_type=2 2 2 2
left_child=1 3 -2 -1
right_child=2 -3 -4 -5
leaf_value=-0.00012444168841466296 0.0002620423461000124 0 0 0
leaf_weight=9.0000000000000053 1.9999999999999989 11.999999999999998 1.0000000000000002 7.0000000000000027
leaf_count=9 2 12 1 7
internal_value=0 0 0.000222572 -9.5365e-05
internal_weight=31 28 3 16
internal_count=31 28 3 16
is_linear=0
shrinkage=0.05


Tree=107
num_leaves=4
num_cat=0
split_feature=10 7 4
split_gain=7.46637e-05 5.7644e-05 2.33395e-06
threshold=1.7804146273299442 -0.25055558913192255 2.7005829991994053
decision_type=2 2 2
left_child=1 -1 -2
right_child=2 -3 -4
leaf_value=-9.2070949921274837e-05 0.00025330753376086545 0 0
leaf_weight=16.000000000000007 1.9999999999999989 11.999999999999998 1.0000000000000002
leaf_count=16 2 12 1
internal_value=0 0 0.00021602
internal_weight=31 28 3
internal_count=31 28 3
is_linear=0
shrinkage=0.05


Tree=108
num_leaves=5
num_cat=0
split_feature=10 7 4 2
split_gain=7.03503e-05 5.23463e-05 1.59973e-06 2.76746e-07
threshold=1.7804146273299442 -0.25055558913192255 2.7005829991994053 -0.57583594624554879
decision_type=2 2 2 2
left_child=1 3 -2 -1
right_child=2 -3 -4 -5
leaf_value=-0.00011469861306250085 0.00024486397703488659 0 0 0
leaf_weight=9.0000000000000053 1.9999999999999989 11.999999999999998 1.0000000000000002 7.0000000000000027
leaf_count=9 2 12 1 7
internal_value=0 0 0.000209688 -8.77382e-05
internal_weight=31 28 3 16
internal_count=31 28 3 16
is_linear=0
shrinkage=0.05


Tree=109
num_leaves=4
num_cat=0
split_feature=10 7 4
split_gain=6.63027e-05 4.87862e-05 9.30644e-07
threshold=1.7804146273299442 -0.25055558913192255 2.7005829991994053
decision_type=2 2 2
left_child=1 -1 -2
right_child=2 -3 -4
leaf_value=-8.4702055901288945e-05 0.00023670186599095654 0 0
leaf_weight=16.000000000000007 1.9999999999999989 11.999999999999998 1.0000000000000002
leaf_count=16 2 12 1
internal_value=0 0 0.000203566
internal_weight=31 28 3
internal_count=31 28 3
is_linear=0
shrinkage=0.05


Tree=110
num_leaves=5
num_cat=0
split_feature=9 9 7 2
split_gain=6.44181e-05 0.000537221 0.000340081 4.543e-06
threshold=-0.38067136158097387 0.56563985941780104 -0.79466114797175214 0.8283808444408941
decision_type=2 2 2 2
left_child=3 2 -2 -1
right_child=1 -3 -4 -5
leaf_value=-3.1291603615197013e-05 0 0 0.00042552301704955212 0
leaf_weight=11 2.0000000000000027 4.9999999999999991 11.999999999999998 1.0000000000000007
leaf_count=11 2 5 12 1
internal_value=0 8.9625e-05 0.000316618 -5.49454e-06
internal_weight=31 19 14 12
internal_count=31 19 14 12
is_linear=0
shrinkage=0.05


Tree=111
num_leaves=3
num_cat=0
split_feature=10 7
split_gain=5.91851e-05 4.92202e-05
threshold=1.7804146273299442 -0.25055558913192255
decision_type=2 2
left_child=1 -1
right_child=-2 -3
leaf_value=-8.5078000693636732e-05 0.00019232960301451379 0
leaf_weight=16.000000000000007 2.9999999999999991 11.999999999999998
leaf_count=16 3 12
internal_value=0 0
internal_weight=31 28
internal_count=31 28
is_linear=0
shrinkage=0.05


Tree=112
num_leaves=4
num_cat=0
split_feature=2 7 7
split_gain=5.39041e-05 3.05676e-05 1.39159e-05
threshold=0.8283808444408941 0.95971481603345643 -0.25055558913192255
decision_type=2 2 2
left_child=1 -1 -2
right_child=2 -3 -4
leaf_value=-6.341968617083403e-05 0 0 0.0002058823080733418
leaf_weight=18.000000000000007 3 6.9999999999999991 2.9999999999999991
leaf_count=18 3 7 3
internal_value=0 0 0.00013875
internal_weight=31 25 6
internal_count=31 25 6
is_linear=0
shrinkage=0.05


Tree=113
num_leaves=5
num_cat=0
split_feature=10 7 7 2
split_gain=5.33155e-05 4.16649e-05 5.54931e-07 3.73303e-07
threshold=1.7804146273299442 -0.25055558913192255 -0.50314711877872909 -0.57583594624554879
decision_type=2 2 2 2
left_child=1 3 -2 -1
right_child=2 -3 -4 -5
leaf_value=-0.00010251613846048703 0 0 0.00021187746276458096 0
leaf_weight=9.0000000000000053 1.0000000000000002 11.999999999999998 1.9999999999999989 7.0000000000000027
leaf_count=9 1 12 2 7
internal_value=0 0 0.000182544 -7.82764e-05
internal_weight=31 28 3 16
internal_count=31 28 3 16
is_linear=0
shrinkage=0.05


Tree=114
num_leaves=4
num_cat=0
split_feature=10 7 7
split_gain=5.02663e-05 3.88262e-05 7.26795e-08
threshold=1.7804146273299442 -0.25055558913192255 -0.50314711877872909
decision_type=2 2 2
left_child=1 -1 -2
right_child=2 -3 -4
leaf_value=-7.556274231961541e-05 0 0 0.00020481484010815613
leaf_weight=16.000000000000007 1.0000000000000002 11.999999999999998 1.9999999999999989
leaf_count=16 1 12 2
internal_value=0 0 0.000177247
internal_weight=31 28 3
internal_count=31 28 3
is_linear=0
shrinkage=0.05


Tree=115
num_leaves=3
num_cat=0
split_feature=10 2
split_gain=4.7404e-05 3.16091e-06
threshold=1.7804146273299442 1.7132375755124842
decision_type=2 2
left_child=1 -1
right_child=-2 -3
leaf_value=-1.6799522525486397e-05 0.00017212637292686843 0
leaf_weight=27.000000000000007 2.9999999999999991 0.999999999999999
leaf_count=27 3 1
internal_value=0 0
internal_weight=31 28
internal_count=31 28
is_linear=0
shrinkage=0.05


Tree=116
num_leaves=5
num_cat=0
split_feature=9 9 7 2
split_gain=4.83102e-05 0.000491665 0.000318951 1.89857e-06
threshold=-0.38067136158097387 0.56563985941780104 -0.79466114797175214 0.8283808444408941
decision_type=2 2 2 2
left_child=3 2 -2 -1
right_child=1 -3 -4 -5
leaf_value=-1.9888089106340558e-05 0 0 0.00040642110862546145 0
leaf_weight=11 2.0000000000000027 4.9999999999999991 11.999999999999998 1.0000000000000007
leaf_count=11 2 5 12 1
internal_value=0 7.77095e-05 0.000299993 0
internal_weight=31 19 14 12
internal_count=31 19 14 12
is_linear=0
shrinkage=0.05


Tree=117
num_leaves=4
num_cat=0
split_feature=10 2 4
split_gain=4.12634e-05 5.85106e-06 1.84663e-08
threshold=1.7804146273299442 1.7132375755124842 2.7005829991994053
decision_type=2 2 2
left_child=1 -1 -2
right_child=2 -3 -4
leaf_value=-2.2856417968536581e-05 0.00018547645459572465 0 0
leaf_weight=27.000000000000007 1.9999999999999989 0.999999999999999 1.0000000000000002
leaf_count=27 2 1 1
internal_value=0 0 0.000160591
internal_weight=31 28 3
internal_count=31 28 3
is_linear=0
shrinkage=0.05


Tree=118
num_leaves=3
num_cat=0
split_feature=10 7
split_gain=3.89149e-05 3.77545e-05
threshold=1.7804146273299442 -0.25055558913192255
decision_type=2 2
left_child=1 -1
right_child=-2 -3
leaf_value=-7.451263639856783e-05 0.00015595449920510868 0
leaf_weight=16.000000000000007 2.9999999999999991 11.999999999999998
leaf_count=16 3 12
internal_value=0 0
internal_weight=31 28
internal_count=31 28
is_linear=0
shrinkage=0.05


Tree=119
num_leaves=4
num_cat=0
split_feature=10 7 7
split_gain=3.6051e-05 3.42848e-05 3.20073e-07
threshold=1.7804146273299442 -0.25055558913192255 -0.50314711877872909
decision_type=2 2 2
left_child=1 -1 -2
right_child=2 -3 -4
leaf_value=-7.1006174034932045e-05 0 0 0.00017409544438123695
leaf_weight=16.000000000000007 1.0000000000000002 11.999999999999998 1.9999999999999989
leaf_count=16 1 12 2
internal_value=0 0 0.000150106
internal_weight=31 28 3
internal_count=31 28 3
is_linear=0
shrinkage=0.05


Tree=120
num_leaves=5
num_cat=0
split_feature=9 9 7 10
split_gain=3.55705e-05 0.000450963 0.000299519 8.98895e-07
threshold=-0.38067136158097387 0.56563985941780104 -0.79466114797175214 -1.0000000180025095e-35
decision_type=2 2 2 2
left_child=3 2 -2 -1
right_child=1 -3 -4 -5
leaf_value=-1.368465372555266e-05 0 0 0.00038879824717206741 0
leaf_weight=10.999999999999998 2.0000000000000027 4.9999999999999991 11.999999999999998 1.0000000000000024
leaf_count=11 2 5 12 1
internal_value=0 6.66806e-05 0.000284761 0
internal_weight=31 19 14 12
internal_count=31 19 14 12
is_linear=0
shrinkage=0.05


Tree=121
num_leaves=4
num_cat=0
split_feature=2 7 9
split_gain=3.20593e-05 2.47362e-05 1.15156e-05
threshold=0.8283808444408941 0.95971481603345643 0.56563985941780104
decision_type=2 2 2
left_child=1 -1 -2
right_child=2 -3 -4
leaf_value=-5.7050511087781076e-05 0.00014760574884712692 0 0
leaf_weight=18.000000000000007 3.9999999999999991 6.9999999999999991 1.9999999999999998
leaf_count=18 4 7 2
internal_value=0 0 0.000107004
internal_weight=31 25 6
internal_count=31 25 6
is_linear=0
shrinkage=0.05


Tree=122
num_leaves=4
num_cat=0
split_feature=2 7 7
split_gain=2.9582e-05 2.24482e-05 1.10904e-05
threshold=0.8283808444408941 0.95971481603345643 -0.25055558913192255
decision_type=2 2 2
left_child=1 -1 -2
right_child=2 -3 -4
leaf_value=-5.4348106771756518e-05 0 0 0.00015943736187182362
leaf_weight=18.000000000000007 3 6.9999999999999991 2.9999999999999991
leaf_count=18 3 7 3
internal_value=0 0 0.000102786
internal_weight=31 25 6
internal_count=31 25 6
is_linear=0
shrinkage=0.05


Tree=123
num_leaves=4
num_cat=0
split_feature=10 2 4
split_gain=2.92511e-05 5.05196e-06 2.12846e-07
threshold=1.7804146273299442 1.7132375755124842 2.7005829991994053
decision_type=2 2 2
left_child=1 -1 -2
right_child=2 -3 -4
leaf_value=-2.1238363177482292e-05 0.00015669489279389372 0 0
leaf_weight=27.000000000000007 1.9999999999999989 0.999999999999999 1.0000000000000002
leaf_count=27 2 1 1
internal_value=0 0 0.000135211
internal_weight=31 28 3
internal_count=31 28 3
is_linear=0
shrinkage=0.05


Tree=124
num_leaves=3
num_cat=0
split_feature=10 7
split_gain=2.75807e-05 2.96594e-05
threshold=1.7804146273299442 -0.25055558913192255
decision_type=2 2
left_child=1 -1
right_child=-2 -3
leaf_value=-6.6042961552739099e-05 0.00013129327242495485 0
leaf_weight=16.000000000000007 2.9999999999999991 11.999999999999998
leaf_count=16 3 12
internal_value=0 0
internal_weight=31 28
internal_count=31 28
is_linear=0
shrinkage=0.05


Tree=125
num_leaves=4
num_cat=0
split_feature=2 7 7
split_gain=2.53195e-05 1.76279e-05 1.07401e-05
threshold=0.8283808444408941 0.95971481603345643 -0.25055558913192255
decision_type=2 2 2
left_child=1 -1 -2
right_child=2 -3 -4
leaf_value=-4.8160747453374266e-05 0 0 0.00015012413612566883
leaf_weight=18.000000000000007 3 6.9999999999999991 2.9999999999999991
leaf_count=18 3 7 3
internal_value=0 0 9.50929e-05
internal_weight=31 25 6
internal_count=31 25 6
is_linear=0
shrinkage=0.05


Tree=126
num_leaves=5
num_cat=0
split_feature=10 7 2 4
split_gain=2.47977e-05 2.51457e-05 1.86508e-06 2.90907e-07
threshold=1.7804146273299442 -0.25055558913192255 -0.57583594624554879 2.7005829991994053
decision_type=2 2 2 2
left_child=1 2 -1 -2
right_child=3 -3 -4 -5
leaf_value=-8.21747472509741e-05 0.00014459316308299691 0 0 0
leaf_weight=9.0000000000000053 1.9999999999999989 11.999999999999998 7.0000000000000027 1.0000000000000002
leaf_count=9 2 12 7 1
internal_value=0 0 -6.08103e-05 0.000124493
internal_weight=31 28 16 3
internal_count=31 28 16 3
is_linear=0
shrinkage=0.05


Tree=127
num_leaves=5
num_cat=0
split_feature=9 9 7 10
split_gain=2.55967e-05 0.000410775 0.00028016 2.91024e-08
threshold=-0.38067136158097387 0.56563985941780104 -0.79466114797175214 -1.0000000180025095e-35
decision_type=2 2 2 2
left_child=3 2 -2 -1
right_child=1 -3 -4 -5
leaf_value=-2.4623168671192991e-06 0 0 0.00037120672878630172 0
leaf_weight=10.999999999999998 2.0000000000000027 4.9999999999999991 11.999999999999998 1.0000000000000024
leaf_count=11 2 5 12 1
internal_value=0 5.65649e-05 0.000269682 0
internal_weight=31 19 14 12
internal_count=31 19 14 12
is_linear=0
shrinkage=0.05


Tree=128
num_leaves=2
num_cat=0
split_feature=10
split_gain=2.16182e-05
threshold=1.7804146273299442
decision_type=2
left_child=-1
right_child=-2
leaf_value=0 0.00011623838334344321
leaf_weight=28.000000000000004 2.9999999999999991
leaf_count=28 3
internal_value=0
internal_weight=31
internal_count=31
is_linear=0
shrinkage=0.05


Tree=129
num_leaves=5
num_cat=0
split_feature=10 7 7 2
split_gain=2.00272e-05 2.69477e-05 1.63046e-07 3.19393e-08
threshold=1.7804146273299442 -0.25055558913192255 -0.50314711877872909 -0.57583594624554879
decision_type=2 2 2 2
left_child=1 3 -2 -1
right_child=2 -3 -4 -5
leaf_value=-8.2127398811280639e-05 0 0 0.00012971208741267514 0
leaf_weight=9.0000000000000053 1.0000000000000002 11.999999999999998 1.9999999999999989 7.0000000000000027
leaf_count=9 1 12 2 7
internal_value=0 0 0.000111879 -6.29515e-05
internal_weight=31 28 3 16
internal_count=31 28 3 16
is_linear=0
shrinkage=0.05


Tree=130
num_leaves=3
num_cat=0
split_feature=10 7
split_gain=1.88831e-05 2.51186e-05
threshold=1.7804146273299442 -0.25055558913192255
decision_type=2 2
left_child=1 -1
right_child=-2 -3
leaf_value=-6.0777574613252065e-05 0.00010863662580959492 0
leaf_weight=16.000000000000007 2.9999999999999991 11.999999999999998
leaf_count=16 3 12
internal_value=0 0
internal_weight=31 28
internal_count=31 28
is_linear=0
shrinkage=0.05


Tree=131
num_leaves=4
num_cat=0
split_feature=10 7 4
split_gain=1.74934e-05 2.28101e-05 2.99274e-07
threshold=1.7804146273299442 -0.25055558913192255 2.7005829991994053
decision_type=2 2 2
left_child=1 -1 -2
right_child=2 -3 -4
leaf_value=-5.7917465181911649e-05 0.00012176706766088796 0 0
leaf_weight=16.000000000000007 1.9999999999999989 11.999999999999998 1.0000000000000002
leaf_count=16 2 12 1
internal_value=0 0 0.000104563
internal_weight=31 28 3
internal_count=31 28 3
is_linear=0
shrinkage=0.05


Tree=132
num_leaves=4
num_cat=0
split_feature=9 9 7
split_gain=1.69109e-05 0.000374146 0.000263165
threshold=-0.38067136158097387 0.56563985941780104 -0.79466114797175214
decision_type=2 2 2
left_child=-1 2 -2
right_child=1 -3 -4
leaf_value=0 0 0 0.00035469982822318203
leaf_weight=12.000000000000002 2.0000000000000027 4.9999999999999991 11.999999999999998
leaf_count=12 2 5 12
internal_value=0 4.59767e-05 0.000255296
internal_weight=31 19 14
internal_count=31 19 14
is_linear=0
shrinkage=0.05


Tree=133
num_leaves=3
num_cat=0
split_feature=10 7
split_gain=1.50808e-05 2.39645e-05
threshold=1.7804146273299442 -0.25055558913192255
decision_type=2 2
left_child=1 -1
right_child=-2 -3
leaf_value=-5.9364888378802423e-05 9.7084854205604573e-05 0
leaf_weight=16.000000000000007 2.9999999999999991 11.999999999999998
leaf_count=16 3 12
internal_value=0 0
internal_weight=31 28
internal_count=31 28
is_linear=0
shrinkage=0.05


Tree=134
num_leaves=4
num_cat=0
split_feature=2 7 7
split_gain=1.38065e-05 1.50178e-05 8.23512e-06
threshold=0.8283808444408941 0.95971481603345643 -0.25055558913192255
decision_type=2 2 2
left_child=1 -1 -2
right_child=2 -3 -4
leaf_value=-4.4452480444880664e-05 0 0 0.00011737137800082558
leaf_weight=18.000000000000007 3 6.9999999999999991 2.9999999999999991
leaf_count=18 3 7 3
internal_value=0 0 7.02204e-05
internal_weight=31 25 6
internal_count=31 25 6
is_linear=0
shrinkage=0.05


Tree=135
num_leaves=5
num_cat=0
split_feature=10 7 2 4
split_gain=1.35356e-05 2.02794e-05 4.36814e-07 1.01706e-07
threshold=1.7804146273299442 -0.25055558913192255 -0.57583594624554879 2.7005829991994053
decision_type=2 2 2 2
left_child=1 2 -1 -2
right_child=3 -3 -4 -5
leaf_value=-7.1965614799410023e-05 0.00010660417377948752 0 0 0
leaf_weight=9.0000000000000053 1.9999999999999989 11.999999999999998 7.0000000000000027 1.0000000000000002
leaf_count=9 2 12 7 1
internal_value=0 0 -5.46101e-05 9.1977e-05
internal_weight=31 28 16 3
internal_count=31 28 16 3
is_linear=0
shrinkage=0.05


Tree=136
num_leaves=4
num_cat=0
split_feature=10 7 2
split_gain=1.27626e-05 1.88892e-05 4.44684e-09
threshold=1.7804146273299442 -0.25055558913192255 -0.57583594624554879
decision_type=2 2 2
left_child=1 2 -1
right_child=-2 -3 -4
leaf_value=-6.8727157078683307e-05 8.9311918127350445e-05 0 0
leaf_weight=9.0000000000000053 2.9999999999999991 11.999999999999998 7.0000000000000027
leaf_count=9 3 12 7
internal_value=0 0 -5.27051e-05
internal_weight=31 28 16
internal_count=31 28 16
is_linear=0
shrinkage=0.05


Tree=137
num_leaves=4
num_cat=0
split_feature=10 7 4
split_gain=1.18233e-05 1.76077e-05 1.94336e-07
threshold=1.7804146273299442 -0.25055558913192255 2.7005829991994053
decision_type=2 2 2
left_child=1 -1 -2
right_child=2 -3 -4
leaf_value=-5.0885872915387114e-05 0.00010007355362176886 0 0
leaf_weight=16.000000000000007 1.9999999999999989 11.999999999999998 1.0000000000000002
leaf_count=16 2 12 1
internal_value=0 0 8.59627e-05
internal_weight=31 28 3
internal_count=31 28 3
is_linear=0
shrinkage=0.05


Tree=138
num_leaves=4
num_cat=0
split_feature=10 7 4
split_gain=1.11452e-05 1.59895e-05 8.47069e-08
threshold=1.7804146273299442 -0.25055558913192255 2.7005829991994053
decision_type=2 2 2
left_child=1 -1 -2
right_child=2 -3 -4
leaf_value=-4.8491243985207608e-05 9.6737866600354416e-05 0 0
leaf_weight=16.000000000000007 1.9999999999999989 11.999999999999998 1.0000000000000002
leaf_count=16 2 12 1
internal_value=0 0 8.34609e-05
internal_weight=31 28 3
internal_count=31 28 3
is_linear=0
shrinkage=0.05


Tree=139
num_leaves=4
num_cat=0
split_feature=9 9 7
split_gain=1.14383e-05 0.000342895 0.00024651
threshold=-0.38067136158097387 0.56563985941780104 -0.79466114797175214
decision_type=2 2 2
left_child=-1 2 -2
right_child=1 -3 -4
leaf_value=0 0 0 0.00033992160138530801
leaf_weight=12.000000000000002 2.0000000000000027 4.9999999999999991 11.999999999999998
leaf_count=12 2 5 12
internal_value=0 3.78126e-05 0.000243013
internal_weight=31 19 14
internal_count=31 19 14
is_linear=0
shrinkage=0.05


Tree=140
num_leaves=3
num_cat=0
split_feature=10 7
split_gain=9.43555e-06 1.7142e-05
threshold=1.7804146273299442 -0.25055558913192255
decision_type=2 2
left_child=1 -1
right_child=-2 -3
leaf_value=-5.0208375460522988e-05 7.6793360203737329e-05 0
leaf_weight=16.000000000000007 2.9999999999999991 11.999999999999998
leaf_count=16 3 12
internal_value=0 0
internal_weight=31 28
internal_count=31 28
is_linear=0
shrinkage=0.05


Tree=141
num_leaves=3
num_cat=0
split_feature=10 7
split_gain=8.74116e-06 1.55666e-05
threshold=1.7804146273299442 -0.25055558913192255
decision_type=2 2
left_child=1 -1
right_child=-2 -3
leaf_value=-4.7845630632603836e-05 7.3913614760385768e-05 0
leaf_weight=16.000000000000007 2.9999999999999991 11.999999999999998
leaf_count=16 3 12
internal_value=0 0
internal_weight=31 28
internal_count=31 28
is_linear=0
shrinkage=0.05


Tree=142
num_leaves=4
num_cat=0
split_feature=2 7 7
split_gain=8.40291e-06 9.68285e-06 6.86298e-06
threshold=0.8283808444408941 0.95971481603345643 -0.25055558913192255
decision_type=2 2 2
left_child=1 -1 -2
right_child=2 -3 -4
leaf_value=-3.5693967580109024e-05 0 0 9.7678992897272046e-05
leaf_weight=18.000000000000007 3 6.9999999999999991 2.9999999999999991
leaf_count=18 3 7 3
internal_value=0 0 5.47818e-05
internal_weight=31 25 6
internal_count=31 25 6
is_linear=0
shrinkage=0.05


Tree=143
num_leaves=5
num_cat=0
split_feature=10 7 2 4
split_gain=7.82228e-06 1.31764e-05 5.32769e-07 8.91205e-08
threshold=1.7804146273299442 -0.25055558913192255 -0.57583594624554879 2.7005829991994053
decision_type=2 2 2 2
left_child=1 2 -1 -2
right_child=3 -3 -4 -5
leaf_value=-5.8543030638247668e-05 8.1196265916029525e-05 0 0 0
leaf_weight=9.0000000000000053 1.9999999999999989 11.999999999999998 7.0000000000000027 1.0000000000000002
leaf_count=9 2 12 7 1
internal_value=0 0 -4.40193e-05 6.99208e-05
internal_weight=31 28 16 3
internal_count=31 28 16 3
is_linear=0
shrinkage=0.05


Tree=144
num_leaves=3
num_cat=0
split_feature=2 9
split_gain=7.43456e-06 6.40414e-06
threshold=0.8283808444408941 -0.20226144581789365
decision_type=2 2
left_child=-1 -2
right_child=1 -3
leaf_value=0 9.3001006171107204e-05 0
leaf_weight=25.000000000000004 3 2.9999999999999991
leaf_count=25 3 3
internal_value=0 5.15286e-05
internal_weight=31 6
internal_count=31 6
is_linear=0
shrinkage=0.05


Tree=145
num_leaves=4
num_cat=0
split_feature=10 7 2
split_gain=7.1243e-06 1.2265e-05 2.38106e-07
threshold=1.7804146273299442 -0.25055558913192255 -0.57583594624554879
decision_type=2 2 2
left_child=1 2 -1
right_child=-2 -3 -4
leaf_value=-5.5908589158207118e-05 6.672845964203582e-05 0 0
leaf_weight=9.0000000000000053 2.9999999999999991 11.999999999999998 7.0000000000000027
leaf_count=9 3 12 7
internal_value=0 0 -4.24697e-05
internal_weight=31 28 16
internal_count=31 28 16
is_linear=0
shrinkage=0.05


Tree=146
num_leaves=4
num_cat=0
split_feature=9 9 7
split_gain=6.62569e-06 0.000310547 0.00023104
threshold=-0.38067136158097387 0.56563985941780104 -0.79466114797175214
decision_type=2 2 2
left_child=-1 2 -2
right_child=1 -3 -4
leaf_value=0 0 0 0.00032469290434024653
leaf_weight=12.000000000000002 2.0000000000000027 4.9999999999999991 11.999999999999998
leaf_count=12 2 5 12
internal_value=0 2.87787e-05 0.000229918
internal_weight=31 19 14
internal_count=31 19 14
is_linear=0
shrinkage=0.05


Tree=147
num_leaves=4
num_cat=0
split_feature=2 7 7
split_gain=5.29036e-06 9.61288e-06 5.09403e-06
threshold=0.8283808444408941 0.95971481603345643 -0.25055558913192255
decision_type=2 2 2
left_child=1 -1 -2
right_child=2 -3 -4
leaf_value=-3.5564768936877164e-05 0 0 8.0562063958495786e-05
leaf_weight=18.000000000000007 3 6.9999999999999991 2.9999999999999991
leaf_count=18 3 7 3
internal_value=0 0 4.34674e-05
internal_weight=31 25 6
internal_count=31 25 6
is_linear=0
shrinkage=0.05


Tree=148
num_leaves=2
num_cat=0
split_feature=10
split_gain=5.59994e-06
threshold=1.7804146273299442
decision_type=2
left_child=-1
right_child=-2
leaf_value=0 5.9160496020922371e-05
leaf_weight=28.000000000000004 2.9999999999999991
leaf_count=28 3
internal_value=0
internal_weight=31
internal_count=31
is_linear=0
shrinkage=0.05


Tree=149
num_leaves=4
num_cat=0
split_feature=10 7 4
split_gain=5.18781e-06 1.27143e-05 3.76749e-08
threshold=1.7804146273299442 -0.25055558913192255 2.7005829991994053
decision_type=2 2 2
left_child=1 -1 -2
right_child=2 -3 -4
leaf_value=-4.3240625356488333e-05 6.5989196300506511e-05 0 0
leaf_weight=16.000000000000007 1.9999999999999989 11.999999999999998 1.0000000000000002
leaf_count=16 2 12 1
internal_value=0 0 5.69419e-05
internal_weight=31 28 3
internal_count=31 28 3
is_linear=0
shrinkage=0.05


Tree=150
num_leaves=3
num_cat=0
split_feature=10 2
split_gain=4.89156e-06 4.52475e-06
threshold=1.7804146273299442 1.7132375755124842
decision_type=2 2
left_child=1 -1
right_child=-2 -3
leaf_value=-2.0099649097703916e-05 5.5292188044404543e-05 0
leaf_weight=27.000000000000007 2.9999999999999991 0.999999999999999
leaf_count=27 3 1
internal_value=0 0
internal_weight=31 28
internal_count=31 28
is_linear=0
shrinkage=0.05


Tree=151
num_leaves=4
num_cat=0
split_feature=10 7 4
split_gain=4.53158e-06 1.10218e-05 7.32643e-08
threshold=1.7804146273299442 -0.25055558913192255 2.7005829991994053
decision_type=2 2 2
left_child=1 -1 -2
right_child=2 -3 -4
leaf_value=-4.0259906912551176e-05 6.1946480224529812e-05 0 0
leaf_weight=16.000000000000007 1.9999999999999989 11.999999999999998 1.0000000000000002
leaf_count=16 2 12 1
internal_value=0 0 5.32187e-05
internal_weight=31 28 3
internal_count=31 28 3
is_linear=0
shrinkage=0.05


Tree=152
num_leaves=5
num_cat=0
split_feature=10 7 2 4
split_gain=4.27168e-06 1.00089e-05 1.42551e-07 3.12922e-08
threshold=1.7804146273299442 -0.25055558913192255 -0.57583594624554879 2.7005829991994053
decision_type=2 2 2 2
left_child=1 2 -1 -2
right_child=3 -3 -4 -5
leaf_value=-5.037721525877708e-05 5.9881644944349836e-05 0 0 0
leaf_weight=9.0000000000000053 1.9999999999999989 11.999999999999998 7.0000000000000027 1.0000000000000002
leaf_count=9 2 12 7 1
internal_value=0 0 -3.83653e-05 5.16701e-05
internal_weight=31 28 16 3
internal_count=31 28 16 3
is_linear=0
shrinkage=0.05


Tree=153
num_leaves=3
num_cat=0
split_feature=10 2
split_gain=4.02774e-06 3.30211e-06
threshold=1.7804146273299442 1.7132375755124842
decision_type=2 2
left_child=1 -1
right_child=-2 -3
leaf_value=-1.7170650514474657e-05 5.0173085473943436e-05 0
leaf_weight=27.000000000000007 2.9999999999999991 0.999999999999999
leaf_count=27 3 1
internal_value=0 0
internal_weight=31 28
internal_count=31 28
is_linear=0
shrinkage=0.05


Tree=154
num_leaves=4
num_cat=0
split_feature=2 7 7
split_gain=3.7629e-06 5.80007e-06 4.90455e-06
threshold=0.8283808444408941 0.95971481603345643 -0.25055558913192255
decision_type=2 2 2
left_child=1 -1 -2
right_child=2 -3 -4
leaf_value=-2.7625470691801664e-05 0 0 7.360131246969098e-05
leaf_weight=18.000000000000007 3 6.9999999999999991 2.9999999999999991
leaf_count=18 3 7 3
internal_value=0 0 3.66591e-05
internal_weight=31 25 6
internal_count=31 25 6
is_linear=0
shrinkage=0.05


Tree=155
num_leaves=4
num_cat=0
split_feature=9 9 10
split_gain=3.62789e-06 0.000283362 9.79174e-05
threshold=-0.38067136158097387 0.56563985941780104 -0.62603703628875396
decision_type=2 2 2
left_child=-1 2 -2
right_child=1 -3 -4
leaf_value=0 0 0 0.00028317664027175245
leaf_weight=12.000000000000002 3.0000000000000027 4.9999999999999991 10.999999999999998
leaf_count=12 3 5 11
internal_value=0 2.12952e-05 0.000218704
internal_weight=31 19 14
internal_count=31 19 14
is_linear=0
shrinkage=0.05


Tree=156
num_leaves=4
num_cat=0
split_feature=10 7 7
split_gain=2.59754e-06 1.04328e-05 4.34577e-07
threshold=1.7804146273299442 -0.25055558913192255 -0.50314711877872909
decision_type=2 2 2
left_child=1 -1 -2
right_child=2 -3 -4
leaf_value=-3.916936515666103e-05 0 0 5.0266887992620383e-05
leaf_weight=16.000000000000007 1.0000000000000002 11.999999999999998 1.9999999999999989
leaf_count=16 1 12 2
internal_value=0 0 4.02922e-05
internal_weight=31 28 3
internal_count=31 28 3
is_linear=0
shrinkage=0.05


Tree=157
num_leaves=4
num_cat=0
split_feature=2 7 7
split_gain=2.28639e-06 6.4987e-06 4.09097e-06
threshold=0.8283808444408941 0.95971481603345643 -0.25055558913192255
decision_type=2 2 2
left_child=1 -1 -2
right_child=2 -3 -4
leaf_value=-2.9241948290482922e-05 0 0 6.3133584335446288e-05
leaf_weight=18.000000000000007 3 6.9999999999999991 2.9999999999999991
leaf_count=18 3 7 3
internal_value=0 0 2.85756e-05
internal_weight=31 25 6
internal_count=31 25 6
is_linear=0
shrinkage=0.05


Tree=158
num_leaves=4
num_cat=0
split_feature=2 7 7
split_gain=2.07502e-06 5.89761e-06 3.833e-06
threshold=0.8283808444408941 0.95971481603345643 -0.25055558913192255
decision_type=2 2 2
left_child=1 -1 -2
right_child=2 -3 -4
leaf_value=-2.7856802947721173e-05 0 0 6.0766034293919735e-05
leaf_weight=18.000000000000007 3 6.9999999999999991 2.9999999999999991
leaf_count=18 3 7 3
internal_value=0 0 2.72227e-05
internal_weight=31 25 6
internal_count=31 25 6
is_linear=0
shrinkage=0.05


Tree=159
num_leaves=3
num_cat=0
split_feature=10 2
split_gain=2.2484e-06 3.19824e-06
threshold=1.7804146273299442 1.7132375755124842
decision_type=2 2
left_child=1 -1
right_child=-2 -3
leaf_value=-1.6898430538796139e-05 3.7486684850591635e-05 0
leaf_weight=27.000000000000007 2.9999999999999991 0.999999999999999
leaf_count=27 3 1
internal_value=0 0
internal_weight=31 28
internal_count=31 28
is_linear=0
shrinkage=0.05


Tree=160
num_leaves=5
num_cat=0
split_feature=10 7 7 2
split_gain=2.08294e-06 7.86627e-06 3.7704e-07 3.23828e-07
threshold=1.7804146273299442 -0.25055558913192255 -0.50314711877872909 -0.57583594624554879
decision_type=2 2 2 2
left_child=1 3 -2 -1
right_child=2 -3 -4 -5
leaf_value=-4.5249574352055729e-05 0 0 4.5276737461487362e-05 0
leaf_weight=9.0000000000000053 1.0000000000000002 11.999999999999998 1.9999999999999989 7.0000000000000027
leaf_count=9 1 12 2 7
internal_value=0 0 3.6081e-05 -3.40118e-05
internal_weight=31 28 3 16
internal_count=31 28 3 16
is_linear=0
shrinkage=0.05


Tree=161
num_leaves=4
num_cat=0
split_feature=10 7 4
split_gain=1.9543e-06 7.32197e-06 3.44415e-07
threshold=1.7804146273299442 -0.25055558913192255 2.7005829991994053
decision_type=2 2 2
left_child=1 -1 -2
right_child=2 -3 -4
leaf_value=-3.2814029494629159e-05 4.3767498185237159e-05 0 0
leaf_weight=16.000000000000007 1.9999999999999989 11.999999999999998 1.0000000000000002
leaf_count=16 2 12 1
internal_value=0 0 3.49491e-05
internal_weight=31 28 3
internal_count=31 28 3
is_linear=0
shrinkage=0.05


Tree=162
num_leaves=4
num_cat=0
split_feature=9 9 7
split_gain=2.02278e-06 0.000263068 0.000213118
threshold=-0.38067136158097387 0.56563985941780104 -0.79466114797175214
decision_type=2 2 2
left_child=-1 2 -2
right_child=1 -3 -4
leaf_value=0 0 0 0.00030325462701372228
leaf_weight=12.000000000000002 2.0000000000000027 4.9999999999999991 11.999999999999998
leaf_count=12 2 5 12
internal_value=0 1.59012e-05 0.000210195
internal_weight=31 19 14
internal_count=31 19 14
is_linear=0
shrinkage=0.05


Tree=163
num_leaves=4
num_cat=0
split_feature=10 7 7
split_gain=1.44616e-06 8.25285e-06 2.19294e-07
threshold=1.7804146273299442 -0.25055558913192255 -0.50314711877872909
decision_type=2 2 2
left_child=1 -1 -2
right_child=2 -3 -4
leaf_value=-3.4837552401072813e-05 0 0 3.725426271557799e-05
leaf_weight=16.000000000000007 1.0000000000000002 11.999999999999998 1.9999999999999989
leaf_count=16 1 12 2
internal_value=0 0 3.00641e-05
internal_weight=31 28 3
internal_count=31 28 3
is_linear=0
shrinkage=0.05


Tree=164
num_leaves=4
num_cat=0
split_feature=10 7 7
split_gain=1.35795e-06 7.49439e-06 1.98328e-07
threshold=1.7804146273299442 -0.25055558913192255 -0.50314711877872909
decision_type=2 2 2
left_child=1 -1 -2
right_child=2 -3 -4
leaf_value=-3.3198127468280901e-05 0 0 3.601249928275735e-05
leaf_weight=16.000000000000007 1.0000000000000002 11.999999999999998 1.9999999999999989
leaf_count=16 1 12 2
internal_value=0 0 2.91328e-05
internal_weight=31 28 3
internal_count=31 28 3
is_linear=0
shrinkage=0.05


Tree=165
num_leaves=5
num_cat=0
split_feature=10 7 7 2
split_gain=1.27532e-06 6.80564e-06 1.78941e-07 1.52478e-07
threshold=1.7804146273299442 -0.25055558913192255 -0.50314711877872909 -0.57583594624554879
decision_type=2 2 2 2
left_child=1 3 -2 -1
right_child=2 -3 -4 -5
leaf_value=-4.1707654483616295e-05 0 0 3.4812148660421278e-05 0
leaf_weight=9.0000000000000053 1.0000000000000002 11.999999999999998 1.9999999999999989 7.0000000000000027
leaf_count=9 1 12 2 7
internal_value=0 0 2.82325e-05 -3.16359e-05
internal_weight=31 28 3 16
internal_count=31 28 3 16
is_linear=0
shrinkage=0.05


Tree=166
num_leaves=4
num_cat=0
split_feature=2 7 7
split_gain=1.00345e-06 4.26402e-06 2.71135e-06
threshold=0.8283808444408941 0.95971481603345643 -0.25055558913192255
decision_type=2 2 2
left_child=1 -1 -2
right_child=2 -3 -4
leaf_value=-2.3686592283315542e-05 0 0 4.8184535698965125e-05
leaf_weight=18.000000000000007 3 6.9999999999999991 2.9999999999999991
leaf_count=18 3 7 3
internal_value=0 0 1.89308e-05
internal_weight=31 25 6
internal_count=31 25 6
is_linear=0
shrinkage=0.05


Tree=167
num_leaves=5
num_cat=0
split_feature=10 7 7 2
split_gain=1.14575e-06 5.91242e-06 1.49091e-07 9.84464e-08
threshold=1.7804146273299442 -0.25055558913192255 -0.50314711877872909 -0.57583594624554879
decision_type=2 2 2 2
left_child=1 3 -2 -1
right_child=2 -3 -4 -5
leaf_value=-3.8764882367104238e-05 0 0 3.2848610232273649e-05 0
leaf_weight=9.0000000000000053 1.0000000000000002 11.999999999999998 1.9999999999999989 7.0000000000000027
leaf_count=9 1 12 2 7
internal_value=0 0 2.67599e-05 -2.94868e-05
internal_weight=31 28 3 16
internal_count=31 28 3 16
is_linear=0
shrinkage=0.05


Tree=168
num_leaves=4
num_cat=0
split_feature=10 7 7
split_gain=1.0765e-06 5.50809e-06 1.3345e-07
threshold=1.7804146273299442 -0.25055558913192255 -0.50314711877872909
decision_type=2 2 2
left_child=1 -1 -2
right_child=2 -3 -4
leaf_value=-2.8460720992263595e-05 0 0 3.1753623237212407e-05
leaf_weight=16.000000000000007 1.0000000000000002 11.999999999999998 1.9999999999999989
leaf_count=16 1 12 2
internal_value=0 0 2.59386e-05
internal_weight=31 28 3
internal_count=31 28 3
is_linear=0
shrinkage=0.05


Tree=169
num_leaves=4
num_cat=0
split_feature=2 7 7
split_gain=8.26301e-07 3.20108e-06 2.49631e-06
threshold=0.8283808444408941 0.95971481603345643 -0.25055558913192255
decision_type=2 2 2
left_child=1 -1 -2
right_child=2 -3 -4
leaf_value=-2.0523025825815746e-05 0 0 4.5570086222141913e-05
leaf_weight=18.000000000000007 3 6.9999999999999991 2.9999999999999991
leaf_count=18 3 7 3
internal_value=0 0 1.71787e-05
internal_weight=31 25 6
internal_count=31 25 6
is_linear=0
shrinkage=0.05


Tree=170
num_leaves=4
num_cat=0
split_feature=2 7 7
split_gain=7.35033e-07 2.905e-06 2.34306e-06
threshold=0.8283808444408941 0.95971481603345643 -0.25055558913192255
decision_type=2 2 2
left_child=1 -1 -2
right_child=2 -3 -4
leaf_value=-1.9550882831313873e-05 0 0 4.3861243175342614e-05
leaf_weight=18.000000000000007 3 6.9999999999999991 2.9999999999999991
leaf_count=18 3 7 3
internal_value=0 0 1.62022e-05
internal_weight=31 25 6
internal_count=31 25 6
is_linear=0
shrinkage=0.05


Tree=171
num_leaves=5
num_cat=0
split_feature=10 7 2 7
split_gain=9.2367e-07 4.37101e-06 2.3571e-07 9.98261e-08
threshold=1.7804146273299442 -0.25055558913192255 -0.57583594624554879 -0.50314711877872909
decision_type=2 2 2 2
left_child=1 2 -1 -2
right_child=3 -3 -4 -5
leaf_value=-3.3936403226107311e-05 0 0 0 2.9204686482747306e-05
leaf_weight=9.0000000000000053 1.0000000000000002 11.999999999999998 7.0000000000000027 1.9999999999999989
leaf_count=9 1 12 7 2
internal_value=0 0 -2.53534e-05 2.40269e-05
internal_weight=31 28 16 3
internal_count=31 28 16 3
is_linear=0
shrinkage=0.05


Tree=172
num_leaves=3
num_cat=0
split_feature=10 2
split_gain=8.68386e-07 2.02151e-06
threshold=1.7804146273299442 1.7132375755124842
decision_type=2 2
left_child=1 -1
right_child=-2 -3
leaf_value=-1.3434719803626636e-05 2.3296809449675424e-05 0
leaf_weight=27.000000000000007 2.9999999999999991 0.999999999999999
leaf_count=27 3 1
internal_value=0 0
internal_weight=31 28
internal_count=31 28
is_linear=0
shrinkage=0.05


Tree=173
num_leaves=5
num_cat=0
split_feature=10 7 2 7
split_gain=8.04476e-07 3.8592e-06 1.86961e-07 1.00028e-07
threshold=1.7804146273299442 -0.25055558913192255 -0.57583594624554879 -0.50314711877872909
decision_type=2 2 2 2
left_child=1 2 -1 -2
right_child=3 -3 -4 -5
leaf_value=-3.1804715283214998e-05 0 0 0 2.7454576144615718e-05
leaf_weight=9.0000000000000053 1.0000000000000002 11.999999999999998 7.0000000000000027 1.9999999999999989
leaf_count=9 1 12 7 2
internal_value=0 0 -2.38229e-05 2.24232e-05
internal_weight=31 28 16 3
internal_count=31 28 16 3
is_linear=0
shrinkage=0.05


Tree=174
num_leaves=4
num_cat=0
split_feature=9 9 7
split_gain=8.59594e-07 0.000241705 0.000199534
threshold=-0.38067136158097387 0.56563985941780104 -0.79466114797175214
decision_type=2 2 2
left_child=-1 2 -2
right_child=1 -3 -4
leaf_value=0 0 0 0.00029158017168251369
leaf_weight=12.000000000000002 2.0000000000000027 4.9999999999999991 11.999999999999998
leaf_count=12 2 5 12
internal_value=0 1.03658e-05 0.000201066
internal_weight=31 19 14
internal_count=31 19 14
is_linear=0
shrinkage=0.05


Tree=175
num_leaves=4
num_cat=0
split_feature=10 7 7
split_gain=5.23716e-07 4.7434e-06 4.02997e-08
threshold=1.7804146273299442 -0.25055558913192255 -0.50314711877872909
decision_type=2 2 2
left_child=1 -1 -2
right_child=2 -3 -4
